{"learner":{"attributes":{"scikit_learn":"{\"_estimator_type\": \"classifier\"}"},"feature_names":[],"feature_types":[],"gradient_booster":{"model":{"cats":{"enc":[],"feature_segments":[],"sorted_idx":[]},"gbtree_model_param":{"num_parallel_tree":"1","num_trees":"200"},"iteration_indptr":[0,4,8,12,16,20,24,28,32,36,40,44,48,52,56,60,64,68,72,76,80,84,88,92,96,100,104,108,112,116,120,124,128,132,136,140,144,148,152,156,160,164,168,172,176,180,184,188,192,196,200],"tree_info":[0,1,2,3,0,1,2,3,0,1,2,3,0,1,2,3,0,1,2,3,0,1,2,3,0,1,2,3,0,1,2,3,0,1,2,3,0,1,2,3,0,1,2,3,0,1,2,3,0,1,2,3,0,1,2,3,0,1,2,3,0,1,2,3,0,1,2,3,0,1,2,3,0,1,2,3,0,1,2,3,0,1,2,3,0,1,2,3,0,1,2,3,0,1,2,3,0,1,2,3,0,1,2,3,0,1,2,3,0,1,2,3,0,1,2,3,0,1,2,3,0,1,2,3,0,1,2,3,0,1,2,3,0,1,2,3,0,1,2,3,0,1,2,3,0,1,2,3,0,1,2,3,0,1,2,3,0,1,2,3,0,1,2,3,0,1,2,3,0,1,2,3,0,1,2,3,0,1,2,3,0,1,2,3,0,1,2,3,0,1,2,3,0,1,2,3,0,1,2,3],"trees":[{"base_weights":[9.6585625E-1,-8.700896E-1,1.0405855E0,-9.08953E-1,9.7268885E-1,-5.487663E-1,1.0781357E0,7.7587545E-2,-2.7350727E-1,7.7587545E-2,3.0855674E-1,-7.885602E-1,3.255387E-1,1.0910316E0,-1.4786567E-1,2.4814759E-1,-8.039371E-1,3.9520335E-1,1.0967318E0,8.613768E-1,-8.680791E-1,-7.1411806E-1,-9.01786E-1,-8.75826E-1,1.083162E0,9.039902E-1,1.1048075E0,1.0071931E0,-2.344498E-1,-2.713361E-1,2.204075E-1,-2.7044642E-1,1.0860816E-1,-2.7227178E-1,-4.307074E-2,-4.307074E-2,-2.6841113E-1,3.2806256E-1,7.7587545E-2,-2.5005403E-1,2.9912236E-1,3.3146006E-1,1.4997916E-1,-1.6372904E-1,3.1424117E-1],"categories":[],"categories_nodes":[],"categories_segments":[],"categories_sizes":[],"default_left":[0,0,0,0,0,0,0,0,0,0,0,0,0,0,0,0,0,0,0,0,0,0,0,0,0,0,0,0,0,0,0,0,0,0,0,0,0,0,0,0,0,0,0,0,0],"id":0,"left_children":[1,3,5,7,9,11,13,-1,-1,-1,-1,15,-1,17,19,-1,21,23,25,27,29,31,33,35,37,39,41,43,-1,-1,-1,-1,-1,-1,-1,-1,-1,-1,-1,-1,-1,-1,-1,-1,-1],"loss_changes":[2.6112422E3,5.4215332E1,1.0916836E3,2.5687866E0,3.6645985E-1,1.6644168E2,2.8254297E2,0E0,0E0,0E0,0E0,9.835724E0,0E0,6.966992E1,1.3652348E2,0E0,2.5740204E0,1.27893684E2,2.6291016E1,1.9542309E1,7.0486145E0,3.978946E1,6.218567E-1,5.8395004E-1,5.271683E-1,1.157417E2,5.078125E-2,5.0968018E0,0E0,0E0,0E0,0E0,0E0,0E0,0E0,0E0,0E0,0E0,0E0,0E0,0E0,0E0,0E0,0E0,0E0],"parents":[2147483647,0,0,1,1,2,2,3,3,4,4,5,5,6,6,11,11,13,13,14,14,16,16,17,17,18,18,19,19,20,20,21,21,22,22,23,23,24,24,25,25,26,26,27,27],"right_children":[2,4,6,8,10,12,14,-1,-1,-1,-1,16,-1,18,20,-1,22,24,26,28,30,32,34,36,38,40,42,44,-1,-1,-1,-1,-1,-1,-1,-1,-1,-1,-1,-1,-1,-1,-1,-1,-1],"split_conditions":[1.3030993E0,2.89724E0,8.2175356E-1,8.335816E-1,1.9480662E0,1.2957448E0,3.7513058E0,7.7587545E-2,-2.7350727E-1,7.7587545E-2,3.0855674E-1,3.0414274E0,3.255387E-1,4.0294775E-1,1.5999349E0,2.4814759E-1,3.9003685E0,2.4464092E0,3.0148655E-2,3.7091663E0,1.99649E0,8.119432E-1,2.4924085E0,2.717869E0,2.389E0,3.941806E-1,3.1007032E0,2.87105E0,-2.344498E-1,-2.713361E-1,2.204075E-1,-2.7044642E-1,1.0860816E-1,-2.7227178E-1,-4.307074E-2,-4.307074E-2,-2.6841113E-1,3.2806256E-1,7.7587545E-2,-2.5005403E-1,2.9912236E-1,3.3146006E-1,1.4997916E-1,-1.6372904E-1,3.1424117E-1],"split_indices":[2,26,18,0,5,19,31,0,0,0,0,7,0,1,30,0,12,2,10,12,11,29,17,3,9,16,20,0,0,0,0,0,0,0,0,0,0,0,0,0,0,0,0,0,0],"split_type":[0,0,0,0,0,0,0,0,0,0,0,0,0,0,0,0,0,0,0,0,0,0,0,0,0,0,0,0,0,0,0,0,0,0,0,0,0,0,0,0,0,0,0,0,0],"sum_hessian":[1.9024922E4,7.436758E2,1.8281246E4,7.288122E2,1.4863607E1,4.2163098E2,1.7859615E4,1.4863607E0,7.273258E2,1.4863607E0,1.3377246E1,3.68122E2,5.3508984E1,1.767382E4,1.8579509E2,2.9727213E0,3.651493E2,1.4417699E2,1.7529643E4,7.729076E1,1.0850433E2,1.9471326E2,1.7043602E2,5.0536263E1,9.3640724E1,7.094895E2,1.6820152E4,7.1345314E1,5.9454427E0,1.06522514E2,1.9818143E0,1.6597694E2,2.8736307E1,1.6894966E2,1.4863607E0,1.4863607E0,4.9049904E1,9.2154366E1,1.4863607E0,3.5672657E1,6.7381683E2,1.6817676E4,2.4772677E0,1.4863607E0,6.9858955E1],"tree_param":{"num_deleted":"0","num_feature":"32","num_nodes":"45","size_leaf_vector":"1"}},{"base_weights":[-6.079336E-1],"categories":[],"categories_nodes":[],"categories_segments":[],"categories_sizes":[],"default_left":[0],"id":1,"left_children":[-1],"loss_changes":[0E0],"parents":[2147483647],"right_children":[-1],"split_conditions":[-1.8238008E-1],"split_indices":[0],"split_type":[0],"sum_hessian":[1.1253355E4],"tree_param":{"num_deleted":"0","num_feature":"32","num_nodes":"1","size_leaf_vector":"1"}},{"base_weights":[-6.079336E-1],"categories":[],"categories_nodes":[],"categories_segments":[],"categories_sizes":[],"default_left":[0],"id":2,"left_children":[-1],"loss_changes":[0E0],"parents":[2147483647],"right_children":[-1],"split_conditions":[-1.8238008E-1],"split_indices":[0],"split_type":[0],"sum_hessian":[1.1253355E4],"tree_param":{"num_deleted":"0","num_feature":"32","num_nodes":"1","size_leaf_vector":"1"}},{"base_weights":[-3.9538747E-1,2.5410788E0,-5.150544E-1,7.809513E-1,-4.6052328E-1,2.013082E0,-5.7491416E-1,3.165688E-2,-1.6489443E-1,2.3938766E0,-1.8002227E-1,-5.9523106E-1,1.3462943E0,-1.2045533E-1,2.41829E0,4.9945408E-1,-6.042794E-1,-2.3972484E-1,2.4631023E0,9.998729E-1,7.288105E-1,2.4757128E0,-5.9081745E-1,-2.9877397E-1,-6.171362E-1,-4.7261018E-1,6.185259E-1,7.558729E-1,-1.0249989E-1,4.3412718E-1,3.165688E-2,1.6581365E-1,7.6020837E-1,3.165688E-2,-1.8222857E-1,7.1282685E-1,-1.3370644E-1,-1.8516941E-1,5.2995016E-3,2.9997042E-1,-1.6089591E-1],"categories":[],"categories_nodes":[],"categories_segments":[],"categories_sizes":[],"default_left":[0,0,0,0,0,0,0,0,0,0,0,0,0,0,0,0,0,0,0,0,0,0,0,0,0,0,0,0,0,0,0,0,0,0,0,0,0,0,0,0,0],"id":3,"left_children":[1,3,5,-1,7,9,11,-1,-1,13,-1,15,17,-1,19,21,23,25,27,29,-1,31,33,35,37,39,-1,-1,-1,-1,-1,-1,-1,-1,-1,-1,-1,-1,-1,-1,-1],"loss_changes":[4.1717407E3,8.7841064E1,1.727001E3,0E0,5.761812E-1,2.64136E2,4.3567725E2,0E0,0E0,1.6709839E1,0E0,1.0950879E2,2.0764021E2,0E0,1.1657715E0,1.9739188E2,4.2768066E1,2.735076E1,1.1739746E1,1.2361434E0,0E0,2.2465057E0,7.512932E-1,1.7536551E2,6.452637E-1,4.8050213E0,0E0,0E0,0E0,0E0,0E0,0E0,0E0,0E0,0E0,0E0,0E0,0E0,0E0,0E0,0E0],"parents":[2147483647,0,0,1,1,2,2,4,4,5,5,6,6,9,9,11,11,12,12,14,14,15,15,16,16,17,17,18,18,19,19,21,21,22,22,23,23,24,24,25,25],"right_children":[2,4,6,-1,8,10,12,-1,-1,14,-1,16,18,-1,20,22,24,26,28,30,-1,32,34,36,38,40,-1,-1,-1,-1,-1,-1,-1,-1,-1,-1,-1,-1,-1,-1,-1],"split_conditions":[1.3030993E0,2.89724E0,8.2175356E-1,7.809513E-1,1.0660616E0,1.2957448E0,3.7513058E0,3.165688E-2,-1.6489443E-1,3.0414274E0,-1.8002227E-1,4.0294775E-1,1.5999349E0,-1.2045533E-1,2.4269972E0,2.4464092E0,3.0148655E-2,3.7091663E0,1.99649E0,1.6487375E0,7.288105E-1,6.1128396E-1,2.4482837E0,3.941806E-1,3.1007032E0,3.1790652E0,6.185259E-1,7.558729E-1,-1.0249989E-1,4.3412718E-1,3.165688E-2,1.6581365E-1,7.6020837E-1,3.165688E-2,-1.8222857E-1,7.1282685E-1,-1.3370644E-1,-1.8516941E-1,5.2995016E-3,2.9997042E-1,-1.6089591E-1],"split_indices":[2,26,18,0,11,19,31,0,0,7,0,1,30,0,26,2,10,12,11,2,0,4,8,16,20,0,0,0,0,0,0,0,0,0,0,0,0,0,0,0,0],"split_type":[0,0,0,0,0,0,0,0,0,0,0,0,0,0,0,0,0,0,0,0,0,0,0,0,0,0,0,0,0,0,0,0,0,0,0,0,0,0,0,0,0],"sum_hessian":[1.1867114E4,4.6388028E2,1.1403234E4,4.5460886E2,9.271424E0,2.6299942E2,1.1140235E4,1.23619E0,8.035234E0,2.2962228E2,3.337713E1,1.1024342E4,1.1589281E2,1.854285E0,2.27768E2,8.993282E1,1.0934409E4,4.8211407E1,6.7681404E1,2.47238E0,2.2529562E2,3.1522844E1,5.8409977E1,4.42556E2,1.0491854E4,4.450284E1,3.70857E0,6.644521E1,1.23619E0,1.23619E0,1.23619E0,1.23619E0,3.0286654E1,1.23619E0,5.7173786E1,2.225142E1,4.203046E2,1.0490308E4,1.5452374E0,1.23619E0,4.3266647E1],"tree_param":{"num_deleted":"0","num_feature":"32","num_nodes":"41","size_leaf_vector":"1"}},{"base_weights":[7.603136E-1,-7.0220786E-1,8.142048E-1,-7.3573065E-1,2.4591415E-1,-4.2298084E-1,8.413979E-1,9.575112E-2,-7.3858726E-1,-6.262271E-1,2.5454834E-1,8.507561E-1,-9.911787E-2,-2.2197226E-1,-2.0930018E-2,2.024375E-1,-6.399302E-1,3.3108163E-1,8.548796E-1,6.715168E-1,-7.0365006E-1,-5.5191845E-1,-7.377441E-1,-7.1333224E-1,8.4580684E-1,8.554481E-1,-7.3129624E-1,7.826957E-1,-1.96551E-1,-2.211472E-1,1.827739E-1,-2.1974689E-1,1.3596721E-1,-6.1896103E-3,-2.2320421E-1,-1.4000473E-2,-2.1983308E-1,2.5669572E-1,4.1772053E-2,2.578713E-1,1.9115588E-1,-3.2498017E-2,-2.617861E-1,-1.5020646E-1,2.4493562E-1],"categories":[],"categories_nodes":[],"categories_segments":[],"categories_sizes":[],"default_left":[0,0,0,0,0,0,0,0,0,0,0,0,0,0,0,0,0,0,0,0,0,0,0,0,0,0,0,0,0,0,0,0,0,0,0,0,0,0,0,0,0,0,0,0,0],"id":4,"left_children":[1,3,5,7,-1,9,11,-1,13,15,-1,17,19,-1,-1,-1,21,23,25,27,29,31,33,35,37,39,41,43,-1,-1,-1,-1,-1,-1,-1,-1,-1,-1,-1,-1,-1,-1,-1,-1,-1],"loss_changes":[1.4661602E3,3.434552E1,6.037197E2,2.187378E0,0E0,1.0038094E2,1.5454199E2,0E0,5.1898193E-1,6.381119E0,0E0,3.695215E1,8.143664E1,0E0,0E0,0E0,2.440094E0,7.5017746E1,1.6170898E1,1.18571205E1,4.754959E0,3.2650448E1,6.7562103E-1,5.652237E-1,5.2908325E-1,1.4959961E1,4.9669957E-1,3.5028496E0,0E0,0E0,0E0,0E0,0E0,0E0,0E0,0E0,0E0,0E0,0E0,0E0,0E0,0E0,0E0,0E0,0E0],"parents":[2147483647,0,0,1,1,2,2,3,3,5,5,6,6,8,8,9,9,11,11,12,12,16,16,17,17,18,18,19,19,20,20,21,21,22,22,23,23,24,24,25,25,26,26,27,27],"right_children":[2,4,6,8,-1,10,12,-1,14,16,-1,18,20,-1,-1,-1,22,24,26,28,30,32,34,36,38,40,42,44,-1,-1,-1,-1,-1,-1,-1,-1,-1,-1,-1,-1,-1,-1,-1,-1,-1],"split_conditions":[1.3030993E0,2.9339886E0,8.2175356E-1,8.335816E-1,2.4591415E-1,1.2957448E0,3.7513058E0,9.575112E-2,1.538464E0,3.0414274E0,2.5454834E-1,4.0294775E-1,1.5999349E0,-2.2197226E-1,-2.0930018E-2,2.024375E-1,3.9003685E0,2.4464092E0,2.6668935E0,3.7091663E0,1.99649E0,3.2968037E0,9.6890104E-1,4.424157E-1,1.1739359E0,3.4407868E0,7.1533394E-1,2.87105E0,-1.96551E-1,-2.211472E-1,1.827739E-1,-2.1974689E-1,1.3596721E-1,-6.1896103E-3,-2.2320421E-1,-1.4000473E-2,-2.1983308E-1,2.5669572E-1,4.1772053E-2,2.578713E-1,1.9115588E-1,-3.2498017E-2,-2.617861E-1,-1.5020646E-1,2.4493562E-1],"split_indices":[2,26,18,0,0,19,31,0,4,7,0,1,30,0,0,0,12,2,17,12,11,12,21,30,30,3,1,0,0,0,0,0,0,0,0,0,0,0,0,0,0,0,0,0,0],"split_type":[0,0,0,0,0,0,0,0,0,0,0,0,0,0,0,0,0,0,0,0,0,0,0,0,0,0,0,0,0,0,0,0,0,0,0,0,0,0,0,0,0,0,0,0,0],"sum_hessian":[1.8593766E4,6.6037006E2,1.7933395E4,6.466433E2,1.3726781E1,3.8538107E2,1.7548014E4,1.4473176E0,6.45196E2,3.3270535E2,5.267571E1,1.7375225E4,1.7278996E2,6.438188E2,1.3771633E0,2.9648952E0,3.2974048E2,1.3742322E2,1.72378E4,7.591087E1,9.68791E1,1.7706348E2,1.5267699E2,4.524073E1,9.2182495E1,1.7232086E4,5.715396E0,7.041961E1,5.491262E0,9.489573E1,1.983366E0,1.5032861E2,2.673487E1,1.3605272E0,1.5131647E2,1.3785028E0,4.386223E1,9.070754E1,1.4749545E0,1.6909736E4,3.223496E2,1.3834656E0,4.33193E0,1.4502442E0,6.896937E1],"tree_param":{"num_deleted":"0","num_feature":"32","num_nodes":"45","size_leaf_vector":"1"}},{"base_weights":[-5.7878554E-1],"categories":[],"categories_nodes":[],"categories_segments":[],"categories_sizes":[],"default_left":[0],"id":5,"left_children":[-1],"loss_changes":[0E0],"parents":[2147483647],"right_children":[-1],"split_conditions":[-1.7363566E-1],"split_indices":[0],"split_type":[0],"sum_hessian":[9.090192E3],"tree_param":{"num_deleted":"0","num_feature":"32","num_nodes":"1","size_leaf_vector":"1"}},{"base_weights":[-5.7878554E-1],"categories":[],"categories_nodes":[],"categories_segments":[],"categories_sizes":[],"default_left":[0],"id":6,"left_children":[-1],"loss_changes":[0E0],"parents":[2147483647],"right_children":[-1],"split_conditions":[-1.7363566E-1],"split_indices":[0],"split_type":[0],"sum_hessian":[9.090192E3],"tree_param":{"num_deleted":"0","num_feature":"32","num_nodes":"1","size_leaf_vector":"1"}},{"base_weights":[-3.5462818E-1,1.1896482E0,-4.7917452E-1,-5.3363156E-1,1.2484807E0,1.0630151E0,-5.424225E-1,2.2339923E-2,-1.6954231E-1,3.8029313E-1,-3.4366062E-1,1.1928036E0,-1.696577E-1,-5.646124E-1,8.0653936E-1,1.4398286E-1,-1.5630782E-1,-1.10860564E-1,1.2012919E0,-2.43271E-1,-5.817223E-1,-4.0242773E-1,1.1590505E0,1.113511E0,1.2911507E0,-4.357328E-1,1.0962784E0,1.1264268E0,-5.84454E-1,-4.79079E-1,2.4667922E-1,3.741176E-1,-1.4987695E-1,3.8528442E-1,2.251162E-2,1.10692374E-1,3.8905343E-1,-1.4921317E-1,3.6356485E-1,4.338252E-1,-1.3816231E-1,3.5498813E-1,1.1374832E-1,-1.7536995E-1,6.3730255E-3,-7.742332E-3,-1.7031647E-1],"categories":[],"categories_nodes":[],"categories_segments":[],"categories_sizes":[],"default_left":[0,0,0,0,0,0,0,0,0,0,0,0,0,0,0,0,0,0,0,0,0,0,0,0,0,0,0,0,0,0,0,0,0,0,0,0,0,0,0,0,0,0,0,0,0,0,0],"id":7,"left_children":[1,3,5,7,9,11,13,-1,-1,-1,15,17,-1,19,21,-1,-1,-1,23,25,27,29,31,33,35,37,39,41,43,45,-1,-1,-1,-1,-1,-1,-1,-1,-1,-1,-1,-1,-1,-1,-1,-1,-1],"loss_changes":[1.9607178E3,7.780835E1,9.205283E2,5.368061E-1,2.2893188E1,7.928192E1,2.7166895E2,0E0,0E0,0E0,1.6437424E0,5.0161743E0,0E0,4.8871826E1,6.3132378E1,0E0,0E0,0E0,1.2690125E0,1.1710726E2,4.0148438E1,3.5798235E0,1.7279358E1,3.1975128E1,3.7893677E-1,4.085006E1,3.1770325E1,1.4007568E-1,5.883789E-1,1.294013E0,0E0,0E0,0E0,0E0,0E0,0E0,0E0,0E0,0E0,0E0,0E0,0E0,0E0,0E0,0E0,0E0,0E0],"parents":[2147483647,0,0,1,1,2,2,3,3,4,4,5,5,6,6,10,10,11,11,13,13,14,14,18,18,19,19,20,20,21,21,22,22,23,23,24,24,25,25,26,26,27,27,28,28,29,29],"right_children":[2,4,6,8,10,12,14,-1,-1,-1,16,18,-1,20,22,-1,-1,-1,24,26,28,30,32,34,36,38,40,42,44,46,-1,-1,-1,-1,-1,-1,-1,-1,-1,-1,-1,-1,-1,-1,-1,-1,-1],"split_conditions":[1.3497965E0,9.1872853E-1,8.2175356E-1,4.1747828E0,1.538464E0,1.2957448E0,3.7513058E0,2.2339923E-2,-1.6954231E-1,3.8029313E-1,1.9113603E0,3.0414274E0,-1.696577E-1,3.0148655E-2,1.4132537E0,1.4398286E-1,-1.5630782E-1,-1.10860564E-1,3.9003685E0,2.5255363E0,4.0294775E-1,3.7091663E0,1.99649E0,7.9177946E-1,9.6890104E-1,1.4534343E0,2.9689329E0,2.5489297E0,3.1007032E0,2.0981226E0,2.4667922E-1,3.741176E-1,-1.4987695E-1,3.8528442E-1,2.251162E-2,1.10692374E-1,3.8905343E-1,-1.4921317E-1,3.6356485E-1,4.338252E-1,-1.3816231E-1,3.5498813E-1,1.1374832E-1,-1.7536995E-1,6.3730255E-3,-7.742332E-3,-1.7031647E-1],"split_indices":[2,0,18,9,4,19,31,0,0,0,21,7,0,10,30,0,0,0,12,14,1,12,11,29,21,20,8,0,20,25,0,0,0,0,0,0,0,0,0,0,0,0,0,0,0,0,0],"split_type":[0,0,0,0,0,0,0,0,0,0,0,0,0,0,0,0,0,0,0,0,0,0,0,0,0,0,0,0,0,0,0,0,0,0,0,0,0,0,0,0,0,0,0,0,0,0,0],"sum_hessian":[1.0190378E4,7.5988257E2,9.430496E3,2.4819445E1,7.350631E2,3.7090192E2,9.059594E3,1.1555365E0,2.3663908E1,7.2652246E2,8.54061E0,3.4377216E2,2.7129776E1,8.913551E3,1.4604295E2,1.2110575E0,7.329552E0,1.6278143E0,3.4214435E2,4.5138202E2,8.462169E3,3.293792E1,1.1310503E2,1.7984734E2,1.62297E2,3.9526627E2,5.6115772E1,1.2854321E1,8.449314E3,3.1570776E1,1.3671421E0,1.0764166E2,5.4633665E0,1.5424585E2,2.5601488E1,1.3997492E0,1.6089726E2,3.8168393E2,1.3582317E1,4.587838E1,1.0237392E1,1.140305E1,1.4512696E0,8.44778E3,1.5342376E0,5.375326E0,2.619545E1],"tree_param":{"num_deleted":"0","num_feature":"32","num_nodes":"47","size_leaf_vector":"1"}},{"base_weights":[6.498555E-1,-6.233451E-1,6.939899E-1,-6.5614766E-1,6.508892E-1,-3.6114004E-1,7.1647596E-1,7.749435E-2,-1.977412E-1,3.0281343E-2,2.1026625E-1,-5.414299E-1,2.1678779E-1,7.2422105E-1,-8.178725E-2,1.7252031E-1,-5.542991E-1,2.9101607E-1,7.27614E-1,5.640147E-1,-6.2348706E-1,-1.992696E-1,-4.7203517E-1,-6.310352E-1,7.2151446E-1,5.688494E-1,7.3445016E-1,6.5843785E-1,-1.7324026E-1,-1.968354E-1,1.551055E-1,4.7135826E-2,-1.9607435E-1,4.2198994E-3,-1.9563787E-1,2.1925436E-1,3.2635354E-2,2.034707E-1,-7.3417574E-2,2.2035094E-1,8.6090565E-2,-1.320748E-1,2.0666382E-1],"categories":[],"categories_nodes":[],"categories_segments":[],"categories_sizes":[],"default_left":[0,0,0,0,0,0,0,0,0,0,0,0,0,0,0,0,0,0,0,0,0,0,0,0,0,0,0,0,0,0,0,0,0,0,0,0,0,0,0,0,0,0,0],"id":8,"left_children":[1,3,5,7,9,11,13,-1,-1,-1,-1,15,-1,17,19,-1,21,23,25,27,29,-1,31,33,35,37,39,41,-1,-1,-1,-1,-1,-1,-1,-1,-1,-1,-1,-1,-1,-1,-1],"loss_changes":[9.315864E2,2.3654388E1,3.8025586E2,1.65271E0,3.2653522E-1,6.5821686E1,9.701709E1,0E0,0E0,0E0,0E0,4.4522476E0,0E0,2.2618164E1,5.338383E1,0E0,2.2630386E0,4.9028976E1,1.6308105E1,7.8902035E0,3.425026E0,0E0,1.9111069E1,5.4635906E-1,4.0023804E-1,5.7174805E1,1.3916016E-1,2.471264E0,0E0,0E0,0E0,0E0,0E0,0E0,0E0,0E0,0E0,0E0,0E0,0E0,0E0,0E0,0E0],"parents":[2147483647,0,0,1,1,2,2,3,3,4,4,5,5,6,6,11,11,13,13,14,14,16,16,17,17,18,18,19,19,20,20,22,22,23,23,24,24,25,25,26,26,27,27],"right_children":[2,4,6,8,10,12,14,-1,-1,-1,-1,16,-1,18,20,-1,22,24,26,28,30,-1,32,34,36,38,40,42,-1,-1,-1,-1,-1,-1,-1,-1,-1,-1,-1,-1,-1,-1,-1],"split_conditions":[1.3030993E0,2.89724E0,8.2175356E-1,8.335816E-1,3.1943512E0,1.2957448E0,3.7513058E0,7.749435E-2,-1.977412E-1,3.0281343E-2,2.1026625E-1,3.0414274E0,2.1678779E-1,4.0294775E-1,1.5999349E0,1.7252031E-1,6.0086167E-1,2.4464092E0,3.0148655E-2,3.7091663E0,1.99649E0,-1.992696E-1,3.9003685E0,2.2888203E0,1.1739359E0,2.2106206E0,3.1007032E0,2.87105E0,-1.7324026E-1,-1.968354E-1,1.551055E-1,4.7135826E-2,-1.9607435E-1,4.2198994E-3,-1.9563787E-1,2.1925436E-1,3.2635354E-2,2.034707E-1,-7.3417574E-2,2.2035094E-1,8.6090565E-2,-1.320748E-1,2.0666382E-1],"split_indices":[2,26,18,0,31,19,31,0,0,0,0,7,0,1,30,0,29,2,10,12,11,0,12,31,30,14,20,0,0,0,0,0,0,0,0,0,0,0,0,0,0,0,0],"split_type":[0,0,0,0,0,0,0,0,0,0,0,0,0,0,0,0,0,0,0,0,0,0,0,0,0,0,0,0,0,0,0,0,0,0,0,0,0,0,0,0,0,0,0],"sum_hessian":[1.656995E4,5.5469977E2,1.6015249E4,5.4125134E2,1.3448375E1,3.3386755E2,1.5681382E4,1.4854358E0,5.397659E2,1.3723336E0,1.2076041E1,2.866777E2,4.718984E1,1.5530788E4,1.505938E2,2.7689157E0,2.8390878E2,1.21369835E2,1.5409418E4,6.8677216E1,8.191658E1,1.1849046E2,1.6541833E2,3.848212E1,8.288771E1,6.395925E2,1.4769825E4,6.3821117E1,4.8560987E0,8.005096E1,1.8656192E0,3.707344E1,1.283449E2,1.2288504E0,3.725327E1,8.145419E1,1.4335191E0,5.6393677E2,7.565573E1,1.4767437E4,2.3886733E0,1.3576851E0,6.2463432E1],"tree_param":{"num_deleted":"0","num_feature":"32","num_nodes":"43","size_leaf_vector":"1"}},{"base_weights":[-5.576481E-1,-1.674133E-1,-4.485345E-1,-5.094323E-1,1.0265079E-1,-1.627742E-1,5.9211504E-2],"categories":[],"categories_nodes":[],"categories_segments":[],"categories_sizes":[],"default_left":[0,0,0,0,0,0,0],"id":9,"left_children":[1,-1,3,5,-1,-1,-1],"loss_changes":[6.1035156E-2,0E0,1.6750321E0,7.944927E-1,0E0,0E0,0E0],"parents":[2147483647,0,0,2,2,3,3],"right_children":[2,-1,4,6,-1,-1,-1],"split_conditions":[2.6668935E0,-1.674133E-1,1.1573164E0,2.7593327E0,1.0265079E-1,-1.627742E-1,5.9211504E-2],"split_indices":[17,0,4,27,0,0,0],"split_type":[0,0,0,0,0,0,0],"sum_hessian":[7.2045415E3,7.1743755E3,3.0166231E1,2.8339336E1,1.8268939E0,2.7291729E1,1.0476077E0],"tree_param":{"num_deleted":"0","num_feature":"32","num_nodes":"7","size_leaf_vector":"1"}},{"base_weights":[-5.576481E-1],"categories":[],"categories_nodes":[],"categories_segments":[],"categories_sizes":[],"default_left":[0],"id":10,"left_children":[-1],"loss_changes":[0E0],"parents":[2147483647],"right_children":[-1],"split_conditions":[-1.6729444E-1],"split_indices":[0],"split_type":[0],"sum_hessian":[7.2045415E3],"tree_param":{"num_deleted":"0","num_feature":"32","num_nodes":"1","size_leaf_vector":"1"}},{"base_weights":[-3.2504562E-1,4.2476612E-1,-5.344705E-1,-4.1477686E-1,8.2322115E-1,-5.5081207E-1,6.2352264E-1,-4.9339017E-1,8.736096E-1,-5.5923156E-2,8.779139E-1,8.6155784E-1,-5.5601454E-1,-4.037252E-1,8.8707E-1,9.838255E-1,-5.446618E-1,-4.397354E-2,2.771498E-1,9.9149996E-1,-1.6739756E-1,-2.4807633E-1,8.883143E-1,1.940222E-1,2.8763634E-1,5.365946E-1,-5.5794847E-1,2.2497396E-1,-1.6107081E-1,1.163822E-1,2.6973805E-1,7.149571E-4,3.161843E-1,8.2391393E-1,-5.56364E-1,1.1304771E-1,1.0442863E0,2.0134258E-1,-1.5312816E-1,8.985823E-1,2.1749279E-1,-5.8040228E-2,1.671404E-1,1.2204788E0,-1.4391267E-1,-1.3563234E-1,-5.614839E-1,6.715295E-2,3.0262697E-1,1.3264272E-1,-1.6782424E-1,4.8958743E-1,2.761831E-1,2.8146857E-1,2.3723528E-1,-1.5236434E-1,2.5152707E-1,1.8098503E-1,5.7768023E-1,-1.6599855E-1,9.9472433E-1,-1.6848929E-1,1.7288791E-2],"categories":[],"categories_nodes":[],"categories_segments":[],"categories_sizes":[],"default_left":[0,0,0,0,0,0,0,0,0,0,0,0,0,0,0,0,0,0,0,0,0,0,0,0,0,0,0,0,0,0,0,0,0,0,0,0,0,0,0,0,0,0,0,0,0,0,0,0,0,0,0,0,0,0,0,0,0,0,0,0,0,0,0],"id":11,"left_children":[1,3,5,7,9,11,13,15,17,19,21,23,25,27,29,31,33,-1,-1,35,-1,37,39,41,-1,43,45,-1,-1,-1,-1,-1,-1,47,49,-1,51,-1,-1,53,55,-1,-1,57,-1,59,61,-1,-1,-1,-1,-1,-1,-1,-1,-1,-1,-1,-1,-1,-1,-1,-1],"loss_changes":[1.3202516E3,6.1446826E2,1.2469653E2,6.0344696E1,5.992682E1,4.8096558E1,2.5241821E1,4.2810516E1,1.8968925E0,3.9402428E1,1.3950378E1,1.38307E0,1.3943726E1,3.3914678E0,9.326553E-2,1.3105412E0,9.107925E0,0E0,0E0,3.9484215E-1,0E0,3.1187587E0,7.8078003E0,7.166479E-1,0E0,8.869577E0,9.548706E0,0E0,0E0,0E0,0E0,0E0,0E0,3.2678747E-1,1.8800964E0,0E0,8.284378E-2,0E0,0E0,4.147644E0,8.909786E0,0E0,0E0,2.0617619E0,0E0,8.088906E1,6.142578E-1,0E0,0E0,0E0,0E0,0E0,0E0,0E0,0E0,0E0,0E0,0E0,0E0,0E0,0E0,0E0,0E0],"parents":[2147483647,0,0,1,1,2,2,3,3,4,4,5,5,6,6,7,7,8,8,9,9,10,10,11,11,12,12,13,13,14,14,15,15,16,16,19,19,21,21,22,22,23,23,25,25,26,26,33,33,34,34,36,36,39,39,40,40,43,43,45,45,46,46],"right_children":[2,4,6,8,10,12,14,16,18,20,22,24,26,28,30,32,34,-1,-1,36,-1,38,40,42,-1,44,46,-1,-1,-1,-1,-1,-1,48,50,-1,52,-1,-1,54,56,-1,-1,58,-1,60,62,-1,-1,-1,-1,-1,-1,-1,-1,-1,-1,-1,-1,-1,-1,-1,-1],"split_conditions":[1.7346922E0,2.7855659E0,3.7513058E0,3.2988496E0,1.9715025E0,9.163623E-1,1.9040713E0,5.7713E-1,2.9964685E0,1.4365574E0,2.4463193E0,3.4046261E0,3.6254585E-1,2.87105E0,1.7419418E0,1.7859833E0,6.429465E-1,-4.397354E-2,2.771498E-1,2.0285885E0,-1.6739756E-1,1.8859109E0,2.8433974E0,2.0587568E0,2.8763634E-1,1.3715472E0,5.0553314E-2,2.2497396E-1,-1.6107081E-1,1.163822E-1,2.6973805E-1,7.149571E-4,3.161843E-1,5.860718E-1,1.8859109E0,1.1304771E-1,1.9409174E0,2.0134258E-1,-1.5312816E-1,1.6713488E0,3.7430973E0,-5.8040228E-2,1.671404E-1,9.4861543E-1,-1.4391267E-1,8.6841667E-1,3.1007032E0,6.715295E-2,3.0262697E-1,1.3264272E-1,-1.6782424E-1,4.8958743E-1,2.761831E-1,2.8146857E-1,2.3723528E-1,-1.5236434E-1,2.5152707E-1,1.8098503E-1,5.7768023E-1,-1.6599855E-1,9.9472433E-1,-1.6848929E-1,1.7288791E-2],"split_indices":[18,3,31,31,26,12,15,4,2,4,9,3,19,0,8,3,21,0,0,14,0,12,25,14,0,17,21,0,0,0,0,0,0,5,12,0,9,0,0,27,0,0,0,27,0,1,20,0,0,0,0,0,0,0,0,0,0,0,0,0,0,0,0],"split_type":[0,0,0,0,0,0,0,0,0,0,0,0,0,0,0,0,0,0,0,0,0,0,0,0,0,0,0,0,0,0,0,0,0,0,0,0,0,0,0,0,0,0,0,0,0,0,0,0,0,0,0,0,0,0,0,0,0,0,0,0,0,0,0],"sum_hessian":[8.405232E3,1.8348442E3,6.5703887E3,5.905394E2,1.2443048E3,6.4794746E3,9.091385E1,5.571603E2,3.3379128E1,7.287484E1,1.17143E3,2.317548E1,6.4562993E3,1.8453684E1,7.246017E1,1.8079298E1,5.39081E2,1.4761087E0,3.1903017E1,2.329715E1,4.9577686E1,1.0511928E1,1.1609181E3,3.3272963E0,1.9848183E1,1.0918991E1,6.4453804E3,1.4305696E0,1.7023113E1,2.4915328E0,6.9968636E1,1.2745436E0,1.6804754E1,3.9819498E0,5.3509906E2,2.4861102E0,2.0811039E1,1.9880528E0,8.523874E0,1.1430819E3,1.7836227E1,1.83563E0,1.4916662E0,6.4068418E0,4.512149E0,5.383686E1,6.3915435E3,1.4584023E0,2.5235476E0,1.1911751E0,5.3390784E2,1.4979202E0,1.931312E1,8.3008685E2,3.1299503E2,8.310238E0,9.5259905E0,4.405909E0,2.0009327E0,4.8773792E1,5.0630684E0,6.3901187E3,1.4245226E0],"tree_param":{"num_deleted":"0","num_feature":"32","num_nodes":"63","size_leaf_vector":"1"}},{"base_weights":[5.8296365E-1,-5.7275504E-1,6.214848E-1,-6.064646E-1,5.9296215E-1,-3.1657326E-1,6.4155895E-1,6.1281733E-2,-1.8291238E-1,2.3388425E-2,1.9264433E-1,6.191968E-1,-4.8228872E-1,6.4845395E-1,-6.6422164E-2,-1.02343604E-1,1.9667394E-1,1.5890582E-1,-4.954949E-1,6.5453756E-1,4.1232523E-1,5.0192976E-1,-5.743871E-1,-6.159538E-1,-3.9691517E-1,6.55297E-1,-5.115938E-1,-4.5626408E-1,6.502631E-1,5.860727E-1,-1.5626931E-1,-1.8203355E-1,1.3412693E-1,-1.8669808E-1,-3.687167E-2,1.3282356E-1,-1.8157683E-1,-1.8603183E-1,1.9668913E-1,7.370267E-2,-2.0200755E-1,-2.0978364E-1,5.4482408E-2,2.0030636E-1,-2.5653312E-1,-1.19045936E-1,1.8459383E-1],"categories":[],"categories_nodes":[],"categories_segments":[],"categories_sizes":[],"default_left":[0,0,0,0,0,0,0,0,0,0,0,0,0,0,0,0,0,0,0,0,0,0,0,0,0,0,0,0,0,0,0,0,0,0,0,0,0,0,0,0,0,0,0,0,0,0,0],"id":12,"left_children":[1,3,5,7,9,11,13,-1,-1,-1,-1,15,17,19,21,-1,-1,-1,23,25,27,29,31,33,35,37,39,41,43,45,-1,-1,-1,-1,-1,-1,-1,-1,-1,-1,-1,-1,-1,-1,-1,-1,-1],"loss_changes":[6.2254297E2,1.8094376E1,2.5489307E2,1.2791595E0,2.8403997E-1,4.434534E1,6.468506E1,0E0,0E0,0E0,0E0,1.7320518E0,3.4948921E0,1.8569336E1,3.7423817E1,0E0,0E0,0E0,2.5968208E0,1.165625E1,6.893205E1,5.575798E0,2.5340805E0,2.5618362E-1,2.3778923E1,5.838867E0,1.2533545E0,1.1287832E1,7.419838E0,1.8839302E0,0E0,0E0,0E0,0E0,0E0,0E0,0E0,0E0,0E0,0E0,0E0,0E0,0E0,0E0,0E0,0E0,0E0],"parents":[2147483647,0,0,1,1,2,2,3,3,4,4,5,5,6,6,11,11,12,12,13,13,14,14,18,18,19,19,20,20,21,21,22,22,23,23,24,24,25,25,26,26,27,27,28,28,29,29],"right_children":[2,4,6,8,10,12,14,-1,-1,-1,-1,16,18,20,22,-1,-1,-1,24,26,28,30,32,34,36,38,40,42,44,46,-1,-1,-1,-1,-1,-1,-1,-1,-1,-1,-1,-1,-1,-1,-1,-1,-1],"split_conditions":[1.3030993E0,2.89724E0,8.2175356E-1,8.335816E-1,3.012078E0,2.741439E0,3.7513058E0,6.1281733E-2,-1.8291238E-1,2.3388425E-2,1.9264433E-1,1.3618789E0,3.0414274E0,3.37073E0,1.5999349E0,-1.02343604E-1,1.9667394E-1,1.5890582E-1,3.2968037E0,2.6668935E0,1.9882814E0,3.7091663E0,1.99649E0,1.7208769E0,3.9003685E0,9.163623E-1,9.650161E-1,1.3002651E0,5.29009E0,2.87105E0,-1.5626931E-1,-1.8203355E-1,1.3412693E-1,-1.8669808E-1,-3.687167E-2,1.3282356E-1,-1.8157683E-1,-1.8603183E-1,1.9668913E-1,7.370267E-2,-2.0200755E-1,-2.0978364E-1,5.4482408E-2,2.0030636E-1,-2.5653312E-1,-1.19045936E-1,1.8459383E-1],"split_indices":[2,26,18,0,23,9,31,0,0,0,0,14,7,3,30,0,0,0,12,17,16,12,11,21,12,12,25,1,9,0,0,0,0,0,0,0,0,0,0,0,0,0,0,0,0,0,0],"split_type":[0,0,0,0,0,0,0,0,0,0,0,0,0,0,0,0,0,0,0,0,0,0,0,0,0,0,0,0,0,0,0,0,0,0,0,0,0,0,0,0,0,0,0,0,0,0,0],"sum_hessian":[1.3974566E4,4.5031335E2,1.3524253E4,4.3812366E2,1.2189682E1,2.8304123E2,1.3241212E4,1.4986966E0,4.3662497E2,1.2880558E0,1.0901627E1,4.217107E1,2.4087018E2,1.3113583E4,1.2762884E2,1.2335865E0,4.093748E1,2.5990498E0,2.3827112E2,1.2782481E4,3.3110083E2,6.0239704E1,6.738914E1,1.048734E2,1.3339772E2,1.2774601E4,7.8810806E0,7.099969E1,2.6010114E2,5.605532E1,4.184383E0,6.571138E1,1.6777527E0,1.0327627E2,1.5971363E0,2.6295578E1,1.0710214E2,2.852697E0,1.2771748E4,1.295892E0,6.585189E0,5.1342934E1,1.9656755E1,2.57675E2,2.426135E0,1.2562428E0,5.479908E1],"tree_param":{"num_deleted":"0","num_feature":"32","num_nodes":"47","size_leaf_vector":"1"}},{"base_weights":[-5.42078E-1,-1.6277401E-1,-4.1176963E-1,-4.839175E-1,1.05462424E-1,6.2392525E-2,-1.5715134E-1],"categories":[],"categories_nodes":[],"categories_segments":[],"categories_sizes":[],"default_left":[0,0,0,0,0,0,0],"id":13,"left_children":[1,-1,3,5,-1,-1,-1],"loss_changes":[1.4428711E-1,0E0,1.5865645E0,7.696276E-1,0E0,0E0,0E0],"parents":[2147483647,0,0,2,2,3,3],"right_children":[2,-1,4,6,-1,-1,-1],"split_conditions":[2.6668935E0,-1.6277401E-1,1.1573164E0,1.8588752E0,1.05462424E-1,6.2392525E-2,-1.5715134E-1],"split_indices":[17,0,4,26,0,0,0],"split_type":[0,0,0,0,0,0,0],"sum_hessian":[5.620927E3,5.5962065E3,2.472027E1,2.2919916E1,1.8003535E0,1.0206373E0,2.1899279E1],"tree_param":{"num_deleted":"0","num_feature":"32","num_nodes":"7","size_leaf_vector":"1"}},{"base_weights":[-5.4207367E-1],"categories":[],"categories_nodes":[],"categories_segments":[],"categories_sizes":[],"default_left":[0],"id":14,"left_children":[-1],"loss_changes":[0E0],"parents":[2147483647],"right_children":[-1],"split_conditions":[-1.6262211E-1],"split_indices":[0],"split_type":[0],"sum_hessian":[5.620872E3],"tree_param":{"num_deleted":"0","num_feature":"32","num_nodes":"1","size_leaf_vector":"1"}},{"base_weights":[-3.031799E-1,3.6749807E-1,-5.152623E-1,-4.5680186E-1,6.5449923E-1,5.5988955E-1,-5.320908E-1,-5.3246725E-1,8.2993007E-1,-5.2165306E-1,6.978839E-1,-1.4146064E-1,6.507786E-1,-5.3909534E-1,6.8854475E-1,1.7880297E-1,-5.4203284E-1,8.7770414E-1,-2.3126218E-2,-1.6119368E-1,7.925402E-3,7.2833097E-1,1.4675413E-1,7.1034014E-1,-1.2873715E-1,-1.1607554E-1,-5.436693E-1,-1.0705579E-1,2.3144738E-1,5.4543655E-2,-1.6361463E-1,6.699345E-1,1.2770835E0,-1.220843E-1,7.346266E-1,7.800015E-1,-5.124967E-1,2.7869943E-1,7.516899E-1,-1.6079794E-1,1.4296101E0,3.4636095E-1,-5.4429823E-1,7.174153E-2,2.1626297E-1,4.175274E-1,1.2325516E-1,1.7991684E-1,-1.427832E-1,2.3288365E-1,1.8785697E-1,3.1909607E-2,2.4471693E-1,-1.6024981E-1,2.0459406E-2,2.6303568E-1,-4.882753E-2,2.2877961E-1,5.0466288E-2,5.8396302E-2,4.924984E-1,4.046603E-3,1.488596E-1,-1.6334471E-1,1.7930958E-2],"categories":[],"categories_nodes":[],"categories_segments":[],"categories_sizes":[],"default_left":[0,0,0,0,0,0,0,0,0,0,0,0,0,0,0,0,0,0,0,0,0,0,0,0,0,0,0,0,0,0,0,0,0,0,0,0,0,0,0,0,0,0,0,0,0,0,0,0,0,0,0,0,0,0,0,0,0,0,0,0,0,0,0,0,0],"id":15,"left_children":[1,3,5,7,9,11,13,15,17,19,21,-1,23,25,27,-1,29,31,-1,-1,-1,33,35,37,-1,39,41,-1,-1,-1,-1,43,45,47,49,51,53,55,57,-1,59,61,63,-1,-1,-1,-1,-1,-1,-1,-1,-1,-1,-1,-1,-1,-1,-1,-1,-1,-1,-1,-1,-1,-1],"loss_changes":[9.630197E2,3.8517218E2,9.335559E1,4.140515E1,6.1959656E1,7.7830315E0,4.3672607E1,4.6190567E0,1.0971298E0,3.876562E-1,1.9435547E1,0E0,5.046007E0,9.681274E0,2.8190603E0,0E0,1.0571442E0,1.0238934E0,0E0,0E0,0E0,5.9970093E0,2.6375696E1,1.044075E0,0E0,3.6557484E1,2.9771729E0,0E0,0E0,0E0,0E0,2.00737E-1,8.852005E-2,2.5754528E0,4.461548E0,6.8647766E-1,4.276266E-1,2.183476E0,2.7592087E-1,0E0,2.8368282E0,1.9924903E-1,5.864258E-1,0E0,0E0,0E0,0E0,0E0,0E0,0E0,0E0,0E0,0E0,0E0,0E0,0E0,0E0,0E0,0E0,0E0,0E0,0E0,0E0,0E0,0E0],"parents":[2147483647,0,0,1,1,2,2,3,3,4,4,5,5,6,6,7,7,8,8,9,9,10,10,12,12,13,13,14,14,16,16,17,17,21,21,22,22,23,23,25,25,26,26,31,31,32,32,33,33,34,34,35,35,36,36,37,37,38,38,40,40,41,41,42,42],"right_children":[2,4,6,8,10,12,14,16,18,20,22,-1,24,26,28,-1,30,32,-1,-1,-1,34,36,38,-1,40,42,-1,-1,-1,-1,44,46,48,50,52,54,56,58,-1,60,62,64,-1,-1,-1,-1,-1,-1,-1,-1,-1,-1,-1,-1,-1,-1,-1,-1,-1,-1,-1,-1,-1,-1],"split_conditions":[1.7346922E0,1.9715025E0,5.3635925E-1,1.0851777E0,1.9925283E0,1.4614204E0,3.3058176E0,1.0410092E0,2.2464938E0,2.3941727E0,2.6989448E0,-1.4146064E-1,3.0148655E-2,5.0553314E-2,9.3214655E-1,1.7880297E-1,9.9682426E-1,1.3030993E0,-2.3126218E-2,-1.6119368E-1,7.925402E-3,2.4463193E0,1.103848E0,1.8499697E0,-1.2873715E-1,9.547692E-1,1.3030993E0,-1.0705579E-1,2.3144738E-1,5.4543655E-2,-1.6361463E-1,7.6047873E-1,1.4184957E0,2.212929E0,1.7131295E0,9.1508216E-1,1.0601273E0,1.4140266E0,2.5167992E0,-1.6079794E-1,2.0565474E0,8.335816E-1,3.1007032E0,7.174153E-2,2.1626297E-1,4.175274E-1,1.2325516E-1,1.7991684E-1,-1.427832E-1,2.3288365E-1,1.8785697E-1,3.1909607E-2,2.4471693E-1,-1.6024981E-1,2.0459406E-2,2.6303568E-1,-4.882753E-2,2.2877961E-1,5.0466288E-2,5.8396302E-2,4.924984E-1,4.046603E-3,1.488596E-1,-1.6334471E-1,1.7930958E-2],"split_indices":[18,26,19,25,3,30,12,2,15,31,25,0,10,21,29,0,20,2,0,0,0,9,16,18,0,17,2,0,0,0,0,1,11,12,27,23,30,29,0,0,0,0,20,0,0,0,0,0,0,0,0,0,0,0,0,0,0,0,0,0,0,0,0,0,0],"split_type":[0,0,0,0,0,0,0,0,0,0,0,0,0,0,0,0,0,0,0,0,0,0,0,0,0,0,0,0,0,0,0,0,0,0,0,0,0,0,0,0,0,0,0,0,0,0,0,0,0,0,0,0,0,0,0,0,0,0,0,0,0,0,0,0,0],"sum_hessian":[6.7681016E3,1.6258544E3,5.142247E3,4.1973532E2,1.2061191E3,7.874984E1,5.0634976E3,3.969775E2,2.2757797E1,4.2515125E1,1.163604E3,6.038283E0,7.271156E1,5.0351616E3,2.8335627E1,2.821414E0,3.941561E2,2.1649788E1,1.1080104E0,4.1353233E1,1.1618928E0,1.1023815E3,6.122247E1,6.923514E1,3.4764185E0,5.4143116E1,4.9810186E3,1.8402499E0,2.6495377E1,1.5699569E0,3.9258615E2,1.600232E1,5.6474686E0,7.965752E0,1.0944158E3,3.113367E1,3.00888E1,6.7293224E0,6.2505817E1,4.3090046E1,1.1053071E1,3.1290126E0,4.9778896E3,2.29434E0,1.3707979E1,4.451489E0,1.1959797E0,2.3919077E0,5.573845E0,7.8624725E2,3.081685E2,1.7681186E0,2.9365551E1,2.9083637E1,1.0051637E0,2.4389389E0,4.2903833E0,6.1057262E1,1.4485586E0,1.9008353E0,9.152236E0,1.3096282E0,1.8193845E0,4.976471E3,1.4182012E0],"tree_param":{"num_deleted":"0","num_feature":"32","num_nodes":"65","size_leaf_vector":"1"}},{"base_weights":[5.3905505E-1,-5.3720236E-1,5.740422E-1,-5.7193136E-1,1.8034151E-1,-2.8002062E-1,5.927497E-1,5.1113095E-2,-5.756198E-1,5.707579E-1,-4.28547E-1,5.977612E-1,-2.4468406E-1,-1.7321339E-1,-9.708572E-4,-9.1167495E-2,1.8185496E-1,-3.1472474E-1,-5.759238E-1,5.999381E-1,-4.3205634E-1,5.1488805E-1,-5.7429886E-1,-5.734219E-1,3.9886695E-1,-2.1134548E-2,-1.7658876E-1,4.5261475E-1,6.080487E-1,3.5307193E-1,-5.7543606E-1,1.7439643E-1,-9.9499844E-2,-5.8335472E-2,-1.754437E-1,-2.831898E-2,-1.7516172E-1,1.7561233E-1,-1.4678076E-1,-1.6626643E-1,1.5686627E-1,-1.6001776E-1,1.8306988E-1,4.608613E-3,1.5246278E-1,-6.255109E-2,-1.8685752E-1],"categories":[],"categories_nodes":[],"categories_segments":[],"categories_sizes":[],"default_left":[0,0,0,0,0,0,0,0,0,0,0,0,0,0,0,0,0,0,0,0,0,0,0,0,0,0,0,0,0,0,0,0,0,0,0,0,0,0,0,0,0,0,0,0,0,0,0],"id":16,"left_children":[1,3,5,7,-1,9,11,-1,13,15,17,19,21,-1,-1,-1,-1,23,25,27,29,31,33,35,37,-1,-1,39,41,43,45,-1,-1,-1,-1,-1,-1,-1,-1,-1,-1,-1,-1,-1,-1,-1,-1],"loss_changes":[4.2862036E2,1.4522156E1,1.7618921E2,1.0523453E0,0E0,3.0170433E1,4.539209E1,0E0,3.4737396E-1,1.2881355E0,3.210537E0,2.4284668E1,1.6530401E1,0E0,0E0,0E0,0E0,2.1696426E1,5.166588E-1,1.2504395E1,2.8134575E0,1.3260636E0,6.8758965E-2,3.741989E-1,5.509362E0,0E0,0E0,4.005211E1,2.5591797E1,2.1225744E-1,2.1792889E-1,0E0,0E0,0E0,0E0,0E0,0E0,0E0,0E0,0E0,0E0,0E0,0E0,0E0,0E0,0E0,0E0],"parents":[2147483647,0,0,1,1,2,2,3,3,5,5,6,6,8,8,9,9,10,10,11,11,12,12,17,17,18,18,19,19,20,20,21,21,22,22,23,23,24,24,27,27,28,28,29,29,30,30],"right_children":[2,4,6,8,-1,10,12,-1,14,16,18,20,22,-1,-1,-1,-1,24,26,28,30,32,34,36,38,-1,-1,40,42,44,46,-1,-1,-1,-1,-1,-1,-1,-1,-1,-1,-1,-1,-1,-1,-1,-1],"split_conditions":[1.3030993E0,2.9339886E0,8.2175356E-1,8.335816E-1,1.8034151E-1,2.741439E0,3.929741E0,5.1113095E-2,1.538464E0,1.3618789E0,1.4140266E0,5.29009E0,2.4767787E0,-1.7321339E-1,-9.708572E-4,-9.1167495E-2,1.8185496E-1,8.119432E-1,3.1005797E0,3.0148655E-2,1.7092359E0,2.945079E0,4.35184E-1,2.1761186E0,1.7208769E0,-2.1134548E-2,-1.7658876E-1,3.941806E-1,4.0294775E-1,1.5637652E0,1.8266516E0,1.7439643E-1,-9.9499844E-2,-5.8335472E-2,-1.754437E-1,-2.831898E-2,-1.7516172E-1,1.7561233E-1,-1.4678076E-1,-1.6626643E-1,1.5686627E-1,-1.6001776E-1,1.8306988E-1,4.608613E-3,1.5246278E-1,-6.255109E-2,-1.8685752E-1],"split_indices":[2,26,18,0,0,9,31,0,4,14,29,9,15,0,0,0,0,29,12,10,1,9,16,17,21,0,0,16,1,4,8,0,0,0,0,0,0,0,0,0,0,0,0,0,0,0,0],"split_type":[0,0,0,0,0,0,0,0,0,0,0,0,0,0,0,0,0,0,0,0,0,0,0,0,0,0,0,0,0,0,0,0,0,0,0,0,0,0,0,0,0,0,0,0,0,0,0],"sum_hessian":[1.1373603E4,3.5764154E2,1.1015961E4,3.4753632E2,1.0105222E1,2.3582428E2,1.0780137E4,1.4948852E0,3.4604144E2,3.462796E1,2.0119632E2,1.0716293E4,6.384382E1,3.4497308E2,1.0683537E0,1.0529225E0,3.357504E1,1.1529052E2,8.59058E1,1.0694105E4,2.2187828E1,1.9150612E1,4.4693207E1,8.475931E1,3.0531214E1,2.2668128E0,8.363899E1,5.609862E2,1.0133119E4,3.2003946E0,1.8987432E1,1.8047632E1,1.1029801E0,1.7287672E0,4.296444E1,2.0238445E0,8.273546E1,2.5514166E1,5.017047E0,3.6150593E1,5.2483563E2,1.888916E1,1.011423E4,1.3533604E0,1.8470341E0,2.7907364E0,1.6196697E1],"tree_param":{"num_deleted":"0","num_feature":"32","num_nodes":"47","size_leaf_vector":"1"}},{"base_weights":[-5.3049344E-1,-1.593411E-1,-3.7570766E-1,-4.603191E-1,1.0267948E-1,-1.52553E-1,5.701464E-2],"categories":[],"categories_nodes":[],"categories_segments":[],"categories_sizes":[],"default_left":[0,0,0,0,0,0,0],"id":17,"left_children":[1,-1,3,5,-1,-1,-1],"loss_changes":[2.3205566E-1,0E0,1.4552851E0,7.089572E-1,0E0,0E0,0E0],"parents":[2147483647,0,0,2,2,3,3],"right_children":[2,-1,4,6,-1,-1,-1],"split_conditions":[2.6668935E0,-1.593411E-1,1.1573164E0,2.2464938E0,1.0267948E-1,-1.52553E-1,5.701464E-2],"split_indices":[17,0,4,15,0,0,0],"split_type":[0,0,0,0,0,0,0],"sum_hessian":[4.333024E3,4.3126616E3,2.0362335E1,1.8536692E1,1.8256446E0,1.7460987E1,1.0757034E0],"tree_param":{"num_deleted":"0","num_feature":"32","num_nodes":"7","size_leaf_vector":"1"}},{"base_weights":[-5.3047943E-1,-4.0678707E-1,-1.592764E-1,1.9468008E-1,-1.518689E-1],"categories":[],"categories_nodes":[],"categories_segments":[],"categories_sizes":[],"default_left":[0,0,0,0,0],"id":18,"left_children":[1,3,-1,-1,-1],"loss_changes":[2.0874023E-2,2.3971646E0,0E0,0E0,0E0],"parents":[2147483647,0,0,1,1],"right_children":[2,4,-1,-1,-1],"split_conditions":[9.163623E-1,7.6047873E-1,-1.592764E-1,1.9468008E-1,-1.518689E-1],"split_indices":[12,1,0,0,0],"split_type":[0,0,0,0,0],"sum_hessian":[4.3329014E3,1.870456E1,4.314197E3,1.134505E0,1.7570053E1],"tree_param":{"num_deleted":"0","num_feature":"32","num_nodes":"5","size_leaf_vector":"1"}},{"base_weights":[-2.8617993E-1,3.317307E-1,-5.0064903E-1,-4.3684816E-1,5.7108855E-1,4.8030284E-1,-5.183947E-1,-5.181442E-1,7.204532E-1,-5.029107E-1,6.064724E-1,-1.3345075E-1,5.537272E-1,-5.256409E-1,6.0235816E-1,1.5455833E-1,-5.284059E-1,7.672588E-1,-3.0193208E-2,-1.5628773E-1,7.952953E-3,6.312423E-1,1.4526215E-1,6.0386574E-1,-1.21106E-1,-8.6135566E-2,-5.3091043E-1,-9.713466E-2,2.0205256E-1,6.0665924E-2,-1.5985803E-1,6.060094E-1,3.4558052E-1,6.865885E-1,5.062393E-1,6.690011E-1,-4.9144435E-1,7.861405E-1,5.177001E-1,-1.5608731E-1,1.0016719E0,2.9428944E-1,-5.3161633E-1,4.7369692E-2,1.9757819E-1,2.0870692E-1,-4.0773932E-2,-7.2613165E-2,1.6786762E-1,4.9648892E-2,2.185774E-1,7.955045E-3,-1.5512241E-1,1.8942596E-1,3.1655726E-1,1.8276809E-1,-1.3379714E-1,3.3257264E-3,3.323574E-1,4.239469E-3,1.2873268E-1,-1.5955691E-1,2.8396772E-2],"categories":[],"categories_nodes":[],"categories_segments":[],"categories_sizes":[],"default_left":[0,0,0,0,0,0,0,0,0,0,0,0,0,0,0,0,0,0,0,0,0,0,0,0,0,0,0,0,0,0,0,0,0,0,0,0,0,0,0,0,0,0,0,0,0,0,0,0,0,0,0,0,0,0,0,0,0,0,0,0,0,0,0],"id":19,"left_children":[1,3,5,7,9,11,13,15,17,19,21,-1,23,25,27,-1,29,31,-1,-1,-1,33,35,37,-1,39,41,-1,-1,-1,-1,43,-1,45,47,49,51,53,55,-1,57,59,61,-1,-1,-1,-1,-1,-1,-1,-1,-1,-1,-1,-1,-1,-1,-1,-1,-1,-1,-1,-1],"loss_changes":[7.1020825E2,2.5432472E2,6.94931E1,3.1283802E1,4.034265E1,5.08276E0,3.205078E1,3.5335388E0,9.220438E-1,3.4012222E-1,1.1565613E1,0E0,3.4316692E0,8.947266E0,1.9028769E0,0E0,1.1004181E0,5.991125E-1,0E0,0E0,0E0,6.350189E0,1.810538E1,5.904293E-1,0E0,2.2811909E1,2.3914795E0,0E0,0E0,0E0,0E0,2.929597E-1,0E0,5.096588E0,1.2140839E1,7.6971054E-1,3.4076738E-1,1.0200882E-1,4.333478E0,0E0,1.4398899E0,1.421125E-1,6.265869E-1,0E0,0E0,0E0,0E0,0E0,0E0,0E0,0E0,0E0,0E0,0E0,0E0,0E0,0E0,0E0,0E0,0E0,0E0,0E0,0E0],"parents":[2147483647,0,0,1,1,2,2,3,3,4,4,5,5,6,6,7,7,8,8,9,9,10,10,12,12,13,13,14,14,16,16,17,17,21,21,22,22,23,23,25,25,26,26,31,31,33,33,34,34,35,35,36,36,37,37,38,38,40,40,41,41,42,42],"right_children":[2,4,6,8,10,12,14,16,18,20,22,-1,24,26,28,-1,30,32,-1,-1,-1,34,36,38,-1,40,42,-1,-1,-1,-1,44,-1,46,48,50,52,54,56,-1,58,60,62,-1,-1,-1,-1,-1,-1,-1,-1,-1,-1,-1,-1,-1,-1,-1,-1,-1,-1,-1,-1],"split_conditions":[1.7346922E0,1.9715025E0,5.3635925E-1,1.0851777E0,1.9925283E0,1.4614204E0,3.3058176E0,1.0410092E0,2.2464938E0,2.3941727E0,2.6989448E0,-1.3345075E-1,3.0148655E-2,5.0553314E-2,9.3214655E-1,1.5455833E-1,3.7111375E-1,1.3497965E0,-3.0193208E-2,-1.5628773E-1,7.952953E-3,1.6713488E0,1.103848E0,1.3101029E0,-1.21106E-1,9.547692E-1,1.3030993E0,-9.713466E-2,2.0205256E-1,6.0665924E-2,-1.5985803E-1,2.0285885E0,3.4558052E-1,1.6591312E0,4.738514E0,1.4417644E0,1.0058047E0,1.3030993E0,1.3715472E0,-1.5608731E-1,8.588897E-1,8.335816E-1,3.1007032E0,4.7369692E-2,1.9757819E-1,2.0870692E-1,-4.0773932E-2,-7.2613165E-2,1.6786762E-1,4.9648892E-2,2.185774E-1,7.955045E-3,-1.5512241E-1,1.8942596E-1,3.1655726E-1,1.8276809E-1,-1.3379714E-1,3.3257264E-3,3.323574E-1,4.239469E-3,1.2873268E-1,-1.5955691E-1,2.8396772E-2],"split_indices":[18,26,19,25,3,30,12,2,15,31,25,0,10,21,29,0,29,2,0,0,0,27,16,21,0,17,2,0,0,0,0,14,0,4,0,14,17,2,17,0,1,0,20,0,0,0,0,0,0,0,0,0,0,0,0,0,0,0,0,0,0,0,0],"split_type":[0,0,0,0,0,0,0,0,0,0,0,0,0,0,0,0,0,0,0,0,0,0,0,0,0,0,0,0,0,0,0,0,0,0,0,0,0,0,0,0,0,0,0,0,0,0,0,0,0,0,0,0,0,0,0,0,0,0,0,0,0,0,0],"sum_hessian":[5.3568896E3,1.3801034E3,3.9767864E3,3.275415E2,1.0525619E3,7.019983E1,3.9065867E3,3.0655917E2,2.0982336E1,3.315006E1,1.0194118E3,4.7898493E0,6.540998E1,3.8820186E3,2.456796E1,2.5305603E0,3.0402863E2,1.9912802E1,1.0695343E0,3.2072655E1,1.0774046E0,9.671036E2,5.2308277E1,6.25059E1,2.9040778E0,4.619841E1,3.8358203E3,1.4994495E0,2.306851E1,1.5732111E0,3.024554E2,1.5845872E1,4.06693E0,6.6720135E2,2.999022E2,2.8672373E1,2.3635902E1,1.7455961E1,4.504994E1,3.3392727E1,1.2805683E1,2.923049E0,3.8328972E3,2.0845656E0,1.3761307E1,6.600519E2,7.1494756E0,1.9712854E1,2.8018933E2,3.4340212E0,2.5238352E1,1.1128039E0,2.2523098E1,1.3207611E1,4.2483516E0,4.1478336E1,3.5716007E0,1.346731E0,1.1458952E1,1.3085895E0,1.6144596E0,3.8315796E3,1.317512E0],"tree_param":{"num_deleted":"0","num_feature":"32","num_nodes":"63","size_leaf_vector":"1"}},{"base_weights":[5.086575E-1,-5.126552E-1,5.412171E-1,-5.5019283E-1,5.1063913E-1,-2.4716254E-1,5.591447E-1,4.2732984E-2,-1.6636445E-1,8.724909E-3,1.6845044E-1,5.3674936E-1,-3.804708E-1,3.143422E-1,5.7558435E-1,-4.9711667E-2,1.7162019E-1,-2.5548965E-1,-5.479613E-1,4.215105E-1,-4.542337E-1,-4.9229664E-1,5.776764E-1,-5.450931E-1,3.9875895E-1,-1.2033594E-2,-1.6911118E-1,-4.8463675E-1,4.8974985E-1,1.20749645E-1,-4.8652387E-1,-1.6127609E-1,2.5079636E-2,5.778919E-1,-8.229766E-2,-1.7014612E-2,-1.6740108E-1,-1.663276E-1,1.6509113E-1,-1.7964831E-1,8.826604E-2,1.6908678E-1,5.9771635E-2,-2.7131144E-2,-1.6665685E-1,1.12992644E-1,1.7351232E-1],"categories":[],"categories_nodes":[],"categories_segments":[],"categories_sizes":[],"default_left":[0,0,0,0,0,0,0,0,0,0,0,0,0,0,0,0,0,0,0,0,0,0,0,0,0,0,0,0,0,0,0,0,0,0,0,0,0,0,0,0,0,0,0,0,0,0,0],"id":20,"left_children":[1,3,5,7,9,11,13,-1,-1,-1,-1,15,17,19,21,-1,-1,23,25,27,29,31,33,35,37,-1,-1,39,41,-1,43,-1,-1,45,-1,-1,-1,-1,-1,-1,-1,-1,-1,-1,-1,-1,-1],"loss_changes":[3.0072314E2,1.1022957E1,1.2389844E2,8.9419556E-1,2.3874426E-1,2.0622242E1,3.427661E1,0E0,0E0,0E0,0E0,8.0959415E-1,3.3678207E0,4.475195E1,1.820581E1,0E0,0E0,1.8754915E1,5.42902E-1,2.9628342E1,2.040616E0,4.6812773E-1,1.6286621E0,3.986206E-1,4.724867E0,0E0,0E0,3.1814451E0,9.384636E0,0E0,1.7184267E0,0E0,0E0,5.593262E-1,0E0,0E0,0E0,0E0,0E0,0E0,0E0,0E0,0E0,0E0,0E0,0E0,0E0],"parents":[2147483647,0,0,1,1,2,2,3,3,4,4,5,5,6,6,11,11,12,12,13,13,14,14,17,17,18,18,19,19,20,20,21,21,22,22,23,23,24,24,27,27,28,28,30,30,33,33],"right_children":[2,4,6,8,10,12,14,-1,-1,-1,-1,16,18,20,22,-1,-1,24,26,28,30,32,34,36,38,-1,-1,40,42,-1,44,-1,-1,46,-1,-1,-1,-1,-1,-1,-1,-1,-1,-1,-1,-1,-1],"split_conditions":[1.3030993E0,2.89724E0,8.2175356E-1,8.335816E-1,3.1943512E0,2.741439E0,3.0148655E-2,4.2732984E-2,-1.6636445E-1,8.724909E-3,1.6845044E-1,1.3302E0,1.4140266E0,1.5999349E0,4.0294775E-1,-4.9711667E-2,1.7162019E-1,8.119432E-1,3.1005797E0,3.941806E-1,2.0657823E0,2.2288003E0,3.5666149E0,2.1761186E0,1.9302887E0,-1.2033594E-2,-1.6911118E-1,2.661245E0,2.0587568E0,1.20749645E-1,9.4861543E-1,-1.6127609E-1,2.5079636E-2,4.252768E-1,-8.229766E-2,-1.7014612E-2,-1.6740108E-1,-1.663276E-1,1.6509113E-1,-1.7964831E-1,8.826604E-2,1.6908678E-1,5.9771635E-2,-2.7131144E-2,-1.6665685E-1,1.12992644E-1,1.7351232E-1],"split_indices":[2,26,18,0,31,9,10,0,0,0,0,21,29,30,1,0,0,29,12,16,26,26,31,17,2,0,0,8,14,0,27,0,0,1,0,0,0,0,0,0,0,0,0,0,0,0,0],"split_type":[0,0,0,0,0,0,0,0,0,0,0,0,0,0,0,0,0,0,0,0,0,0,0,0,0,0,0,0,0,0,0,0,0,0,0,0,0,0,0,0,0,0,0,0,0,0,0],"sum_hessian":[9.034017E3,2.7865182E2,8.755365E3,2.6923767E2,9.414146E0,1.9438417E2,8.56098E3,1.484273E0,2.6775342E2,1.0494956E0,8.364651E0,2.781184E1,1.6657234E2,5.3999945E2,8.0209814E3,1.1546483E0,2.6657192E1,9.683762E1,6.973471E1,4.743139E2,6.5685555E1,1.5224921E1,8.0057563E3,6.724045E1,2.959718E1,2.2033544E0,6.753136E1,3.279035E1,4.4152356E2,1.9693406E0,6.3716217E1,1.4176551E1,1.0483701E0,8.004054E3,1.7024043E0,1.8706336E0,6.536981E1,3.6954021E0,2.5901777E1,2.8799154E1,3.9911978E0,3.5126248E2,9.026108E1,9.7955885E0,5.3920628E1,2.1013412E1,7.9830405E3],"tree_param":{"num_deleted":"0","num_feature":"32","num_nodes":"47","size_leaf_vector":"1"}},{"base_weights":[-5.217608E-1,-1.5678048E-1,-3.3527565E-1,1.0327876E-1,-4.3668398E-1,6.073743E-2,-1.4840347E-1],"categories":[],"categories_nodes":[],"categories_segments":[],"categories_sizes":[],"default_left":[0,0,0,0,0,0,0],"id":21,"left_children":[1,-1,3,-1,5,-1,-1],"loss_changes":[3.439331E-1,0E0,1.3666972E0,0E0,6.8580365E-1,0E0,0E0],"parents":[2147483647,0,0,2,2,4,4],"right_children":[2,-1,4,-1,6,-1,-1],"split_conditions":[2.6668935E0,-1.5678048E-1,1.02112204E-1,1.0327876E-1,1.8588752E0,6.073743E-2,-1.4840347E-1],"split_indices":[17,0,20,0,26,0,0],"split_type":[0,0,0,0,0,0,0],"sum_hessian":[3.3101975E3,3.2935461E3,1.6651262E1,1.8512443E0,1.4800018E1,1.0239766E0,1.3776041E1],"tree_param":{"num_deleted":"0","num_feature":"32","num_nodes":"7","size_leaf_vector":"1"}},{"base_weights":[-5.217379E-1,-3.720028E-1,-1.566937E-1,2.0431007E-1,-1.4768384E-1],"categories":[],"categories_nodes":[],"categories_segments":[],"categories_sizes":[],"default_left":[0,0,0,0,0],"id":22,"left_children":[1,3,-1,-1,-1],"loss_changes":[9.051514E-2,2.378031E0,0E0,0E0,0E0],"parents":[2147483647,0,0,1,1],"right_children":[2,4,-1,-1,-1],"split_conditions":[9.163623E-1,1.1980064E0,-1.566937E-1,2.0431007E-1,-1.4768384E-1],"split_indices":[12,20,0,0,0],"split_type":[0,0,0,0,0],"sum_hessian":[3.310047E3,1.5128546E1,3.2949185E3,1.0729051E0,1.405564E1],"tree_param":{"num_deleted":"0","num_feature":"32","num_nodes":"5","size_leaf_vector":"1"}},{"base_weights":[-2.7244785E-1,3.0616125E-1,-4.8864573E-1,-4.1903108E-1,5.1468205E-1,5.6735616E-2,-5.2331007E-1,-5.0718683E-1,6.4939934E-1,-4.8621354E-1,5.454803E-1,5.612289E-1,-3.5802126E-1,-5.241299E-1,1.5143552E-1,1.3768363E-1,-5.1832587E-1,6.975005E-1,-3.3599842E-2,-1.5230025E-1,1.0203432E-2,3.953732E-1,6.2561685E-1,6.0308325E-1,-1.19605534E-1,-4.794015E-1,1.7048778E-1,-5.2445394E-1,3.8622554E-2,4.6213046E-2,-1.5705699E-1,5.073604E-1,2.8929967E-1,-5.0361466E-1,5.0599504E-1,6.3356346E-1,1.4502779E-1,6.953092E-1,1.6286345E-1,2.656941E-1,-5.1827544E-1,4.5755967E-3,-1.5741172E-1,1.9357802E-2,1.7685294E-1,-1.6101229E-1,6.827968E-2,1.616456E-1,-7.294073E-2,6.601667E-3,1.9050027E-1,-1.3382895E-1,1.4481445E-1,2.7369037E-1,1.5512592E-1,-1.363573E-1,1.4287367E-1,-1.5693289E-1,-4.2551644E-2],"categories":[],"categories_nodes":[],"categories_segments":[],"categories_sizes":[],"default_left":[0,0,0,0,0,0,0,0,0,0,0,0,0,0,0,0,0,0,0,0,0,0,0,0,0,0,0,0,0,0,0,0,0,0,0,0,0,0,0,0,0,0,0,0,0,0,0,0,0,0,0,0,0,0,0,0,0,0,0],"id":23,"left_children":[1,3,5,7,9,11,13,15,17,19,21,23,25,27,-1,-1,29,31,-1,-1,-1,33,35,37,-1,39,-1,41,-1,-1,-1,43,-1,45,47,49,51,53,55,-1,57,-1,-1,-1,-1,-1,-1,-1,-1,-1,-1,-1,-1,-1,-1,-1,-1,-1,-1],"loss_changes":[5.238442E2,1.7250885E2,5.7653564E1,2.4347431E1,2.755754E1,3.8504116E1,2.6802979E0,2.7790222E0,8.060188E-1,3.181529E-1,1.0090576E1,3.574417E0,1.1636804E1,6.734619E-1,0E0,0E0,8.9803696E-1,4.6619606E-1,0E0,0E0,0E0,3.0271778E1,2.0413513E0,3.1312428E0,0E0,5.2298775E0,0E0,3.970337E-1,0E0,0E0,0E0,4.3876195E-1,0E0,9.3455696E-1,6.751976E0,4.688263E-1,2.2878873E0,2.071619E0,3.1472578E0,0E0,8.602905E-2,0E0,0E0,0E0,0E0,0E0,0E0,0E0,0E0,0E0,0E0,0E0,0E0,0E0,0E0,0E0,0E0,0E0,0E0],"parents":[2147483647,0,0,1,1,2,2,3,3,4,4,5,5,6,6,7,7,8,8,9,9,10,10,11,11,12,12,13,13,16,16,17,17,21,21,22,22,23,23,25,25,27,27,31,31,33,33,34,34,35,35,36,36,37,37,38,38,40,40],"right_children":[2,4,6,8,10,12,14,16,18,20,22,24,26,28,-1,-1,30,32,-1,-1,-1,34,36,38,-1,40,-1,42,-1,-1,-1,44,-1,46,48,50,52,54,56,-1,58,-1,-1,-1,-1,-1,-1,-1,-1,-1,-1,-1,-1,-1,-1,-1,-1,-1,-1],"split_conditions":[1.7346922E0,1.9715025E0,3.0148655E-2,1.0851777E0,1.9925283E0,2.2845442E0,2.7886267E0,1.0410092E0,2.2464938E0,2.3941727E0,1.2004594E0,4.0681667E0,2.4196365E0,3.1007032E0,1.5143552E-1,1.3768363E-1,3.7111375E-1,1.1289843E0,-3.3599842E-2,-1.5230025E-1,1.0203432E-2,3.0414274E0,3.960596E0,2.1193252E0,-1.19605534E-1,2.3116198E0,1.7048778E-1,1.0410092E0,3.8622554E-2,4.6213046E-2,-1.5705699E-1,2.0285885E0,2.8929967E-1,1.7066571E-1,1.4306579E0,2.945079E0,2.0565474E0,1.117942E0,2.8280764E0,2.656941E-1,3.929741E0,4.5755967E-3,-1.5741172E-1,1.9357802E-2,1.7685294E-1,-1.6101229E-1,6.827968E-2,1.616456E-1,-7.294073E-2,6.601667E-3,1.9050027E-1,-1.3382895E-1,1.4481445E-1,2.7369037E-1,1.5512592E-1,-1.363573E-1,1.4287367E-1,-1.5693289E-1,-4.2551644E-2],"split_indices":[18,26,10,25,3,8,12,2,15,31,30,25,15,20,0,0,29,12,0,0,0,7,3,4,0,31,0,2,0,0,0,14,0,10,16,9,0,21,12,0,31,0,0,0,0,0,0,0,0,0,0,0,0,0,0,0,0,0,0],"split_type":[0,0,0,0,0,0,0,0,0,0,0,0,0,0,0,0,0,0,0,0,0,0,0,0,0,0,0,0,0,0,0,0,0,0,0,0,0,0,0,0,0,0,0,0,0,0,0,0,0,0,0,0,0,0,0,0,0,0,0],"sum_hessian":[4.1854062E3,1.1383721E3,3.0470342E3,2.5400063E2,8.843714E2,1.8205684E2,2.8649775E3,2.351258E2,1.8874828E1,2.5958971E1,8.584125E2,8.198297E1,1.00073875E2,2.8631843E3,1.7930716E0,2.2217736E0,2.3290402E2,1.7832205E1,1.0426236E0,2.4954012E1,1.0049587E0,3.0083658E2,5.5757587E2,7.891388E1,3.0690906E0,8.890642E1,1.1167459E1,2.8619607E3,1.2236805E0,1.566847E0,2.3133717E2,1.210663E1,5.7255745E0,3.257309E1,2.682635E2,5.481931E2,9.382736E0,6.476596E1,1.4147914E1,1.8586286E0,8.704779E1,1.3067744E0,2.8606538E3,2.1738343E0,9.932796E0,3.1417225E1,1.1558647E0,2.5727173E2,1.0991772E1,1.3237255E0,5.468694E2,3.2945538E0,6.088183E0,2.7348915E1,3.741705E1,4.6118393E0,9.536075E0,8.555941E1,1.4883797E0],"tree_param":{"num_deleted":"0","num_feature":"32","num_nodes":"59","size_leaf_vector":"1"}},{"base_weights":[4.868664E-1,-4.9451396E-1,5.1765704E-1,-5.333301E-1,4.662108E-1,1.5214068E-1,5.5306095E-1,3.572457E-2,-1.6157103E-1,7.477347E-3,1.5606017E-1,3.4704036E-1,-1.7324726E-1,-4.6157292E-1,5.550959E-1,4.4550547E-1,-3.7845066E-1,5.2016807E-1,-3.2450646E-1,-1.5276381E-1,1.4188688E-2,5.553347E-1,-7.3716216E-2,4.8799917E-1,-6.5659356E-1,5.7334546E-3,-4.6522218E-1,-9.5348164E-2,5.511373E-1,-5.0581825E-1,-2.1143575E-1,3.1986752E-1,5.559425E-1,-4.813091E-2,1.6310784E-1,-2.1255618E-1,-1.2365356E-2,-2.0150957E-1,8.332595E-2,1.0784439E-1,-1.5301588E-1,-2.2014841E-2,1.7142613E-1,-1.6092E-1,8.436512E-2,7.8269E-2,-1.5890387E-1,-3.7564322E-1,1.5816142E-1,1.6682485E-1,6.2661944E-3],"categories":[],"categories_nodes":[],"categories_segments":[],"categories_sizes":[],"default_left":[0,0,0,0,0,0,0,0,0,0,0,0,0,0,0,0,0,0,0,0,0,0,0,0,0,0,0,0,0,0,0,0,0,0,0,0,0,0,0,0,0,0,0,0,0,0,0,0,0,0,0],"id":24,"left_children":[1,3,5,7,9,11,13,-1,-1,-1,-1,15,17,19,21,23,25,27,29,-1,-1,31,-1,33,35,37,39,-1,41,43,45,47,49,-1,-1,-1,-1,-1,-1,-1,-1,-1,-1,-1,-1,-1,-1,-1,-1,-1,-1],"loss_changes":[2.1344177E2,8.271183E0,8.844263E1,7.726097E-1,1.9878829E-1,3.845854E1,1.3133179E1,0E0,0E0,0E0,0E0,2.724276E1,2.4028164E1,3.3993816E-1,1.3265381E0,1.5970291E1,1.5305476E0,1.2423162E0,3.7341347E0,0E0,0E0,7.1276855E-1,0E0,1.1727982E1,3.8085604E-1,1.9246922E0,1.5661135E0,0E0,5.488777E-1,1.8656559E0,1.7742466E1,6.6496124E0,4.5422363E-1,0E0,0E0,0E0,0E0,0E0,0E0,0E0,0E0,0E0,0E0,0E0,0E0,0E0,0E0,0E0,0E0,0E0,0E0],"parents":[2147483647,0,0,1,1,2,2,3,3,4,4,5,5,6,6,11,11,12,12,13,13,14,14,15,15,16,16,17,17,18,18,21,21,23,23,24,24,25,25,26,26,28,28,29,29,30,30,31,31,32,32],"right_children":[2,4,6,8,10,12,14,-1,-1,-1,-1,16,18,20,22,24,26,28,30,-1,-1,32,-1,34,36,38,40,-1,42,44,46,48,50,-1,-1,-1,-1,-1,-1,-1,-1,-1,-1,-1,-1,-1,-1,-1,-1,-1,-1],"split_conditions":[1.3030993E0,1.538464E0,3.0148655E-2,8.335816E-1,3.012078E0,4.738514E0,4.0294775E-1,3.572457E-2,-1.6157103E-1,7.477347E-3,1.5606017E-1,1.5999349E0,2.4463193E0,3.3444662E0,3.5666149E0,2.5255363E0,3.015658E0,1.5805516E-2,8.119432E-1,-1.5276381E-1,1.4188688E-2,4.252768E-1,-7.3716216E-2,1.6051726E0,8.308848E-1,1.3016264E0,2.0657823E0,-9.5348164E-2,1.2466168E0,3.4735875E0,3.9003685E0,2.5202193E0,3.1007032E0,-4.813091E-2,1.6310784E-1,-2.1255618E-1,-1.2365356E-2,-2.0150957E-1,8.332595E-2,1.0784439E-1,-1.5301588E-1,-2.2014841E-2,1.7142613E-1,-1.6092E-1,8.436512E-2,7.8269E-2,-1.5890387E-1,-3.7564322E-1,1.5816142E-1,1.6682485E-1,6.2661944E-3],"split_indices":[2,4,10,0,23,0,1,0,0,0,0,30,9,31,31,14,31,16,29,0,0,1,0,12,29,4,26,0,15,2,12,0,20,0,0,0,0,0,0,0,0,0,0,0,0,0,0,0,0,0,0],"split_type":[0,0,0,0,0,0,0,0,0,0,0,0,0,0,0,0,0,0,0,0,0,0,0,0,0,0,0,0,0,0,0,0,0,0,0,0,0,0,0,0,0,0,0,0,0,0,0,0,0,0,0],"sum_hessian":[7.0540864E3,2.1412975E2,6.8399565E3,2.0624184E2,7.887914E0,6.044813E2,6.235475E3,1.4701583E0,2.0477168E2,1.0191907E0,6.8687234E0,3.7800107E2,2.2648024E2,1.2029027E1,6.2234463E3,3.3316867E2,4.483241E1,4.011997E1,1.8636028E2,1.0998667E1,1.0303599E0,6.2218975E3,1.5485181E0,3.213361E2,1.1832562E1,8.432246E0,3.640016E1,1.0997305E0,3.9020237E1,7.0245834E1,1.1611444E2,1.7376207E1,6.2045215E3,2.5267563E1,2.9606854E2,1.0772213E1,1.0603502E0,1.9948972E0,6.437349E0,1.5148278E0,3.4885334E1,1.1450834E0,3.7875153E1,6.7924934E1,2.3208976E0,4.6814014E1,6.930042E1,1.4375635E0,1.5938643E1,6.202856E3,1.665572E0],"tree_param":{"num_deleted":"0","num_feature":"32","num_nodes":"51","size_leaf_vector":"1"}},{"base_weights":[-5.150443E-1,-1.5484478E-1,-2.9423946E-1,1.842037E-1,-1.437762E-1,5.0322723E-1,-9.493179E-2,-8.911778E-2,3.363449E-1],"categories":[],"categories_nodes":[],"categories_segments":[],"categories_sizes":[],"default_left":[0,0,0,0,0,0,0,0,0],"id":25,"left_children":[1,-1,3,5,-1,7,-1,-1,-1],"loss_changes":[4.611206E-1,0E0,1.4015956E0,9.3542314E-1,0E0,1.9918151E0,0E0,0E0,0E0],"parents":[2147483647,0,0,2,2,3,3,5,5],"right_children":[2,-1,4,6,-1,8,-1,-1,-1],"split_conditions":[2.6668935E0,-1.5484478E-1,3.902167E-1,6.5402455E0,-1.437762E-1,5.9605775E0,-9.493179E-2,-8.911778E-2,3.363449E-1],"split_indices":[17,0,21,0,0,0,0,0,0],"split_type":[0,0,0,0,0,0,0,0,0],"sum_hessian":[2.511598E3,2.4977615E3,1.3836547E1,3.8597376E0,9.976809E0,2.3543308E0,1.5054067E0,1.2520419E0,1.102289E0],"tree_param":{"num_deleted":"0","num_feature":"32","num_nodes":"9","size_leaf_vector":"1"}},{"base_weights":[-5.150101E-1,-3.2966933E-1,-1.5472989E-1,1.7741664E-1,-1.4285517E-1],"categories":[],"categories_nodes":[],"categories_segments":[],"categories_sizes":[],"default_left":[0,0,0,0,0],"id":26,"left_children":[1,3,-1,-1,-1],"loss_changes":[1.8206787E-1,2.0331228E0,0E0,0E0,0E0],"parents":[2147483647,0,0,1,1],"right_children":[2,4,-1,-1,-1],"split_conditions":[9.163623E-1,1.1980064E0,-1.5472989E-1,1.7741664E-1,-1.4285517E-1],"split_indices":[12,20,0,0,0],"split_type":[0,0,0,0,0],"sum_hessian":[2.511369E3,1.1979131E1,2.4993896E3,1.2273104E0,1.0751821E1],"tree_param":{"num_deleted":"0","num_feature":"32","num_nodes":"5","size_leaf_vector":"1"}},{"base_weights":[-2.6134947E-1,2.8616002E-1,-4.7891235E-1,-4.0335357E-1,4.7301275E-1,6.1209492E-2,-5.1642203E-1,-4.981097E-1,5.914758E-1,-4.696002E-1,5.005831E-1,4.5721927E-1,-3.9329267E-1,-5.1736134E-1,1.3475691E-1,1.3436927E-1,-5.103326E-1,6.4305586E-1,-3.8856834E-2,6.4115673E-3,-1.4862622E-1,3.5092932E-1,5.895254E-1,5.83581E-1,-3.732312E-2,-5.073099E-1,1.577347E-1,-5.177925E-1,4.839895E-2,-1.5499867E-1,8.578855E-2,2.5324473E-1,4.2942512E-1,-4.3250132E-1,4.4652358E-1,5.971368E-1,1.068726E-1,8.4118944E-1,3.777735E-1,-1.4408444E-1,4.217126E-1,-1.5401247E-1,-2.7473526E-2,4.894601E-3,-1.554366E-1,-4.763375E-2,1.5423414E-1,1.24436915E-1,-1.5082298E-1,1.4379935E-1,-6.8913236E-2,1.8189809E-1,1.3658144E-1,1.322136E-1,-1.2293549E-1,1.3466853E-1,3.1158E-1,-5.383594E-2,1.5979204E-1,-2.1521641E-2,1.557142E-1],"categories":[],"categories_nodes":[],"categories_segments":[],"categories_sizes":[],"default_left":[0,0,0,0,0,0,0,0,0,0,0,0,0,0,0,0,0,0,0,0,0,0,0,0,0,0,0,0,0,0,0,0,0,0,0,0,0,0,0,0,0,0,0,0,0,0,0,0,0,0,0,0,0,0,0,0,0,0,0,0,0],"id":27,"left_children":[1,3,5,7,9,11,13,15,17,19,21,23,25,27,-1,-1,29,31,-1,-1,-1,33,35,37,39,41,-1,43,-1,-1,-1,-1,45,47,49,51,53,55,57,-1,59,-1,-1,-1,-1,-1,-1,-1,-1,-1,-1,-1,-1,-1,-1,-1,-1,-1,-1,-1,-1],"loss_changes":[3.8613306E2,1.1899337E2,4.702112E1,1.8878819E1,1.9101593E1,2.7448906E1,2.199524E0,2.3162003E0,7.3789406E-1,2.7866173E-1,9.187958E0,5.1101284E0,7.7153025E0,7.1777344E-1,0E0,0E0,1.0484772E0,3.5039568E-1,0E0,0E0,0E0,2.0082924E1,1.5571442E0,3.1238194E0,3.7630942E0,1.1371231E-1,0E0,3.8964844E-1,0E0,0E0,0E0,0E0,5.8385086E-1,1.9576926E0,5.3723373E0,2.9000854E-1,1.572217E0,1.7032509E0,3.366222E0,0E0,4.758383E-1,0E0,0E0,0E0,0E0,0E0,0E0,0E0,0E0,0E0,0E0,0E0,0E0,0E0,0E0,0E0,0E0,0E0,0E0,0E0,0E0],"parents":[2147483647,0,0,1,1,2,2,3,3,4,4,5,5,6,6,7,7,8,8,9,9,10,10,11,11,12,12,13,13,16,16,17,17,21,21,22,22,23,23,24,24,25,25,27,27,32,32,33,33,34,34,35,35,36,36,37,37,38,38,40,40],"right_children":[2,4,6,8,10,12,14,16,18,20,22,24,26,28,-1,-1,30,32,-1,-1,-1,34,36,38,40,42,-1,44,-1,-1,-1,-1,46,48,50,52,54,56,58,-1,60,-1,-1,-1,-1,-1,-1,-1,-1,-1,-1,-1,-1,-1,-1,-1,-1,-1,-1,-1,-1],"split_conditions":[1.7346922E0,1.9715025E0,3.0148655E-2,1.0851777E0,1.9925283E0,2.3703873E0,2.7886267E0,3.902167E-1,2.2464938E0,1.4411933E0,1.2427305E0,2.1193252E0,2.5822496E0,3.1007032E0,1.3475691E-1,1.3436927E-1,1.3099487E0,1.1316352E0,-3.8856834E-2,6.4115673E-3,-1.4862622E-1,3.0414274E0,2.30542E0,1.117942E0,2.8280764E0,3.929741E0,1.577347E-1,1.0410092E0,4.839895E-2,-1.5499867E-1,8.578855E-2,2.5324473E-1,7.6047873E-1,2.5167992E0,1.4306579E0,1.7334538E0,3.960596E0,1.3030993E0,3.015658E0,-1.4408444E-1,2.867514E0,-1.5401247E-1,-2.7473526E-2,4.894601E-3,-1.554366E-1,-4.763375E-2,1.5423414E-1,1.24436915E-1,-1.5082298E-1,1.4379935E-1,-6.8913236E-2,1.8189809E-1,1.3658144E-1,1.322136E-1,-1.2293549E-1,1.3466853E-1,3.1158E-1,-5.383594E-2,1.5979204E-1,-2.1521641E-2,1.557142E-1],"split_indices":[18,26,10,25,3,8,12,21,15,19,30,4,15,20,0,0,11,5,0,0,0,7,30,21,12,31,0,2,0,0,0,0,1,0,16,4,3,2,31,0,3,0,0,0,0,0,0,0,0,0,0,0,0,0,0,0,0,0,0,0,0],"split_type":[0,0,0,0,0,0,0,0,0,0,0,0,0,0,0,0,0,0,0,0,0,0,0,0,0,0,0,0,0,0,0,0,0,0,0,0,0,0,0,0,0,0,0,0,0,0,0,0,0,0,0,0,0,0,0,0,0,0,0,0,0],"sum_hessian":[3.2394583E3,9.211118E2,2.3183464E3,1.96146E2,7.249658E2,1.5050562E2,2.1678408E3,1.7954398E2,1.6602013E1,2.0146233E1,7.048196E2,8.042499E1,7.008063E1,2.1661978E3,1.6429155E0,1.8355467E0,1.7770844E2,1.559449E1,1.0075226E0,1.0151751E0,1.9131058E1,2.6458163E2,4.4023795E2,6.3914097E1,1.6510887E1,6.2744755E1,7.335874E0,2.1650593E3,1.1384066E0,1.766554E2,1.0530367E0,6.512631E0,9.08186E0,2.8390066E1,2.3619157E2,4.3316968E2,7.0682664E0,2.7013783E1,3.6900314E1,8.379037E0,8.13185E0,6.161106E1,1.1336939E0,1.3050464E0,2.1637544E3,1.0329134E0,8.048945E0,1.7978911E0,2.6592175E1,2.2554063E2,1.0650944E1,4.0374106E2,2.9428629E1,4.3831067E0,2.6851597E0,1.0139156E1,1.6874626E1,7.9905825E0,2.8909733E1,1.3830849E0,6.7487655E0],"tree_param":{"num_deleted":"0","num_feature":"32","num_nodes":"61","size_leaf_vector":"1"}},{"base_weights":[4.7062135E-1,-4.7992274E-1,5.001348E-1,-5.179249E-1,1.456995E-1,1.4191177E-1,5.3703904E-1,2.9861746E-2,-5.242696E-1,-5.615876E-2,4.090414E-1,-4.335457E-1,5.39044E-1,-1.5803787E-1,-2.4117973E-2,-5.388014E-1,5.1798433E-2,-5.7870287E-1,4.962821E-1,-1.4493597E-1,1.6411083E-3,5.393139E-1,-6.6387445E-2,-5.695339E-1,1.1976289E-1,2.1775337E-1,-4.89106E-1,-7.2096103E-1,1.1179169E-1,5.259032E-1,-3.4124973E-1,2.679965E-1,5.400621E-1,-1.7818174E-1,2.546688E-2,-1.0077863E-1,1.0706197E-1,1.4240518E-1,-1.5925719E-1,-6.429572E-2,-2.2251059E-1,-9.6074246E-2,1.6385624E-1,-1.4134806E-1,6.634484E-2,-2.9033434E-1,1.5100601E-1,1.6207239E-1,3.4977214E-3],"categories":[],"categories_nodes":[],"categories_segments":[],"categories_sizes":[],"default_left":[0,0,0,0,0,0,0,0,0,0,0,0,0,0,0,0,0,0,0,0,0,0,0,0,0,0,0,0,0,0,0,0,0,0,0,0,0,0,0,0,0,0,0,0,0,0,0,0,0],"id":28,"left_children":[1,3,5,7,-1,9,11,-1,13,15,17,19,21,-1,-1,23,25,27,29,-1,-1,31,-1,33,-1,35,37,39,-1,41,43,45,47,-1,-1,-1,-1,-1,-1,-1,-1,-1,-1,-1,-1,-1,-1,-1,-1],"loss_changes":[1.5297644E2,6.286415E0,6.973755E1,6.739845E-1,0E0,2.6191965E1,9.550171E0,0E0,1.3379288E-1,1.4871776E1,1.8443932E1,2.2949612E-1,1.0997314E0,0E0,0E0,1.7310791E0,2.108679E1,2.6453576E0,4.9958916E0,0E0,0E0,8.2470703E-1,0E0,8.636761E-1,0E0,1.3949649E1,2.4724388E0,5.153656E-3,0E0,3.4000244E0,6.330324E-1,4.8849096E0,4.4482422E-1,0E0,0E0,0E0,0E0,0E0,0E0,0E0,0E0,0E0,0E0,0E0,0E0,0E0,0E0,0E0,0E0],"parents":[2147483647,0,0,1,1,2,2,3,3,5,5,6,6,8,8,9,9,10,10,11,11,12,12,15,15,16,16,17,17,18,18,21,21,23,23,25,25,26,26,27,27,29,29,30,30,31,31,32,32],"right_children":[2,4,6,8,-1,10,12,-1,14,16,18,20,22,-1,-1,24,26,28,30,-1,-1,32,-1,34,-1,36,38,40,-1,42,44,46,48,-1,-1,-1,-1,-1,-1,-1,-1,-1,-1,-1,-1,-1,-1,-1,-1],"split_conditions":[1.3030993E0,2.9339886E0,3.0148655E-2,8.335816E-1,1.456995E-1,2.6989448E0,4.0294775E-1,2.9861746E-2,3.175168E0,6.429465E-1,2.4464092E0,3.3389378E0,3.5666149E0,-1.5803787E-1,-2.4117973E-2,3.0851653E0,4.227352E0,1.3002651E0,1.9040713E0,-1.4493597E-1,1.6411083E-3,4.252768E-1,-6.6387445E-2,1.5151651E0,1.1976289E-1,1.441439E0,1.3086108E0,1.4637153E0,1.1179169E-1,3.300752E-2,1.0450392E0,2.5202193E0,3.1007032E0,-1.7818174E-1,2.546688E-2,-1.0077863E-1,1.0706197E-1,1.4240518E-1,-1.5925719E-1,-6.429572E-2,-2.2251059E-1,-9.6074246E-2,1.6385624E-1,-1.4134806E-1,6.634484E-2,-2.9033434E-1,1.5100601E-1,1.6207239E-1,3.4977214E-3],"split_indices":[2,26,10,0,0,25,1,0,31,21,2,31,31,0,0,2,31,1,15,0,0,1,0,30,0,27,29,12,0,16,1,0,20,0,0,0,0,0,0,0,0,0,0,0,0,0,0,0,0],"split_type":[0,0,0,0,0,0,0,0,0,0,0,0,0,0,0,0,0,0,0,0,0,0,0,0,0,0,0,0,0,0,0,0,0,0,0,0,0,0,0,0,0,0,0,0,0,0,0,0,0],"sum_hessian":[5.443399E3,1.6346301E2,5.2799355E3,1.5771935E2,5.7436676E0,4.9358978E2,4.786346E3,1.4547466E0,1.562646E2,2.8388516E2,2.0970462E2,9.423414E0,4.7769224E3,1.5519556E2,1.0690415E0,5.1162567E1,2.327226E2,1.6561455E1,1.9314316E2,8.377013E0,1.0464008E0,4.775518E3,1.404371E0,4.991984E1,1.2427226E0,1.7854164E2,5.418095E1,1.4617763E1,1.9436911E0,1.8690494E2,6.2382183E0,1.4120484E1,4.761398E3,4.821423E1,1.7056129E0,3.556843E1,1.4297322E2,1.8191094E0,5.236184E1,1.0205984E0,1.3597164E1,4.0294576E0,1.8287549E2,5.1994185E0,1.0387995E0,1.7611773E0,1.2359307E1,4.759761E3,1.6365092E0],"tree_param":{"num_deleted":"0","num_feature":"32","num_nodes":"49","size_leaf_vector":"1"}},{"base_weights":[-5.097288E-1,-1.533526E-1,-2.5258702E-1,-3.8893172E-1,1.24220334E-1,5.7893835E-2,-1.4012972E-1],"categories":[],"categories_nodes":[],"categories_segments":[],"categories_sizes":[],"default_left":[0,0,0,0,0,0,0],"id":29,"left_children":[1,-1,3,5,-1,-1,-1],"loss_changes":[5.765686E-1,0E0,1.3053849E0,5.8902216E-1,0E0,0E0,0E0],"parents":[2147483647,0,0,2,2,3,3],"right_children":[2,-1,4,6,-1,-1,-1],"split_conditions":[2.6668935E0,-1.533526E-1,1.1573164E0,2.058669E0,1.24220334E-1,5.7893835E-2,-1.4012972E-1],"split_indices":[17,0,4,9,0,0,0],"split_type":[0,0,0,0,0,0,0],"sum_hessian":[1.8961934E3,1.8846036E3,1.158972E1,9.96771E0,1.6220108E0,1.006451E0,8.961259E0],"tree_param":{"num_deleted":"0","num_feature":"32","num_nodes":"7","size_leaf_vector":"1"}},{"base_weights":[-5.096678E-1,-2.8798968E-1,-5.106627E-1,1.6511478E-1,-1.3845706E-1,-1.5335166E-1,-3.2826605E-1,7.123392E-2,-1.3296308E-1],"categories":[],"categories_nodes":[],"categories_segments":[],"categories_sizes":[],"default_left":[0,0,0,0,0,0,0,0,0],"id":30,"left_children":[1,3,5,-1,-1,-1,7,-1,-1],"loss_changes":[2.7124023E-1,1.8206526E0,7.6293945E-3,0E0,0E0,0E0,6.2879854E-1,0E0,0E0],"parents":[2147483647,0,0,1,1,2,2,6,6],"right_children":[2,4,6,-1,-1,-1,8,-1,-1],"split_conditions":[9.163623E-1,1.1980064E0,4.6808143E0,1.6511478E-1,-1.3845706E-1,-1.5335166E-1,3.6898296E0,7.123392E-2,-1.3296308E-1],"split_indices":[12,20,7,0,0,0,9,0,0],"split_type":[0,0,0,0,0,0,0,0,0],"sum_hessian":[1.8959254E3,9.768313E0,1.8861571E3,1.3027731E0,8.46554E0,1.8791055E3,7.0516253E0,1.0108492E0,6.0407763E0],"tree_param":{"num_deleted":"0","num_feature":"32","num_nodes":"9","size_leaf_vector":"1"}},{"base_weights":[-2.519138E-1,2.6870334E-1,-4.7051325E-1,-3.8949615E-1,4.3876955E-1,6.375664E-2,-5.111683E-1,-4.9035206E-1,5.269657E-1,-4.5073345E-1,4.6376362E-1,4.0549496E-1,-3.8354495E-1,-5.122481E-1,1.2130996E-1,1.2091065E-1,-5.0396013E-1,5.7847786E-1,-1.8863413E-2,4.227928E-3,-1.4483191E-1,5.694178E-1,3.1641653E-1,5.120849E-1,-5.3842686E-2,-4.9825084E-1,1.464424E-1,-5.128124E-1,4.2884868E-2,6.2140953E-2,-1.5327182E-1,2.2043647E-1,3.6618143E-1,5.863505E-1,-1.9510399E-1,-3.2896766E-1,3.8524598E-1,7.0875186E-1,2.929433E-1,-1.4035706E-1,3.6836922E-1,-1.5161055E-1,-3.772131E-2,5.153596E-3,-1.5397413E-1,-5.0718233E-2,1.491555E-1,1.6877645E-1,2.247335E-1,9.260772E-2,-1.364605E-1,-1.4099398E-1,1.2322749E-1,7.751722E-2,1.6245057E-1,-4.7181327E-2,2.2613688E-1,-3.1666506E-2,1.5501893E-1,-4.0895615E-2,1.4498983E-1],"categories":[],"categories_nodes":[],"categories_segments":[],"categories_sizes":[],"default_left":[0,0,0,0,0,0,0,0,0,0,0,0,0,0,0,0,0,0,0,0,0,0,0,0,0,0,0,0,0,0,0,0,0,0,0,0,0,0,0,0,0,0,0,0,0,0,0,0,0,0,0,0,0,0,0,0,0,0,0,0,0],"id":31,"left_children":[1,3,5,7,9,11,13,15,17,19,21,23,25,27,-1,-1,29,31,-1,-1,-1,33,35,37,39,41,-1,43,-1,-1,-1,-1,45,47,49,51,53,55,57,-1,59,-1,-1,-1,-1,-1,-1,-1,-1,-1,-1,-1,-1,-1,-1,-1,-1,-1,-1,-1,-1],"loss_changes":[2.8401544E2,8.281438E1,3.8200043E1,1.4319269E1,1.3263329E1,1.9285383E1,1.8215332E0,1.8754692E0,5.092535E-1,2.533586E-1,8.718735E0,3.5248718E0,5.7140884E0,6.765137E-1,0E0,0E0,7.7726364E-1,2.0916462E-1,0E0,0E0,0E0,4.407875E0,1.0830597E1,2.2951632E0,2.6822345E0,6.5971375E-2,0E0,3.843994E-1,0E0,0E0,0E0,0E0,6.5234375E-1,8.344574E-1,1.1790918E0,2.6715803E0,4.1852303E0,1.2847967E0,2.6559856E0,0E0,5.1067734E-1,0E0,0E0,0E0,0E0,0E0,0E0,0E0,0E0,0E0,0E0,0E0,0E0,0E0,0E0,0E0,0E0,0E0,0E0,0E0,0E0],"parents":[2147483647,0,0,1,1,2,2,3,3,4,4,5,5,6,6,7,7,8,8,9,9,10,10,11,11,12,12,13,13,16,16,17,17,21,21,22,22,23,23,24,24,25,25,27,27,32,32,33,33,34,34,35,35,36,36,37,37,38,38,40,40],"right_children":[2,4,6,8,10,12,14,16,18,20,22,24,26,28,-1,-1,30,32,-1,-1,-1,34,36,38,40,42,-1,44,-1,-1,-1,-1,46,48,50,52,54,56,58,-1,60,-1,-1,-1,-1,-1,-1,-1,-1,-1,-1,-1,-1,-1,-1,-1,-1,-1,-1,-1,-1],"split_conditions":[1.7346922E0,1.9715025E0,3.0148655E-2,1.0851777E0,1.9925283E0,2.3703873E0,2.7886267E0,3.902167E-1,2.1646929E0,3.9769843E0,2.3657165E0,2.1193252E0,2.5822496E0,3.1007032E0,1.2130996E-1,1.2091065E-1,1.4265301E0,1.2042217E0,-1.8863413E-2,4.227928E-3,-1.4483191E-1,1.6591312E0,4.738514E0,1.4097352E0,2.8280764E0,3.3058176E0,1.464424E-1,1.0410092E0,4.2884868E-2,6.2140953E-2,-1.5327182E-1,2.2043647E-1,1.1739359E0,1.3787508E0,1.0375693E0,1.7537102E0,3.9003685E0,2.0657823E0,3.2580516E0,-1.4035706E-1,1.7537102E0,-1.5161055E-1,-3.772131E-2,5.153596E-3,-1.5397413E-1,-5.0718233E-2,1.491555E-1,1.6877645E-1,2.247335E-1,9.260772E-2,-1.364605E-1,-1.4099398E-1,1.2322749E-1,7.751722E-2,1.6245057E-1,-4.7181327E-2,2.2613688E-1,-3.1666506E-2,1.5501893E-1,-4.0895615E-2,1.4498983E-1],"split_indices":[18,26,10,25,3,8,12,21,15,7,12,4,15,20,0,0,27,5,0,0,0,4,0,21,12,12,0,2,0,0,0,0,30,2,11,29,12,26,31,0,29,0,0,0,0,0,0,0,0,0,0,0,0,0,0,0,0,0,0,0,0],"split_type":[0,0,0,0,0,0,0,0,0,0,0,0,0,0,0,0,0,0,0,0,0,0,0,0,0,0,0,0,0,0,0,0,0,0,0,0,0,0,0,0,0,0,0,0,0,0,0,0,0,0,0,0,0,0,0,0,0,0,0,0,0],"sum_hessian":[2.493486E3,7.3730035E2,1.7561859E3,1.5112352E2,5.861768E2,1.2414617E2,1.6320397E3,1.3656013E2,1.456339E1,1.5555226E1,5.706216E2,7.043064E1,5.3715534E1,1.6305571E3,1.4825758E0,1.619516E0,1.3494063E2,1.3411414E1,1.1519758E0,1.0391718E0,1.4516054E1,3.3065985E2,2.3996173E2,5.707214E1,1.3358501E1,4.784763E1,5.8679013E0,1.6293711E3,1.185963E0,1.0265273E0,1.339141E2,6.3067307E0,7.104683E0,3.2372302E2,6.936813E0,2.2761103E1,2.1720064E2,2.8900969E1,2.8171173E1,6.690145E0,6.668357E0,4.6600582E1,1.2470479E0,1.3036399E0,1.6280675E3,1.3398682E0,5.764815E0,2.863708E2,3.735223E1,2.2958338E0,4.6409793E0,1.9423164E1,3.3379376E0,1.2134291E2,9.585772E1,1.30551E0,2.7595457E1,1.0320931E1,1.785024E1,1.2023652E0,5.465992E0],"tree_param":{"num_deleted":"0","num_feature":"32","num_nodes":"61","size_leaf_vector":"1"}},{"base_weights":[4.5732504E-1,-4.683536E-1,4.858766E-1,-5.0974756E-1,4.0420175E-1,1.3135593E-1,5.2538717E-1,-1.5613593E-1,2.1004427E-2,3.456092E-2,1.3445418E-1,-4.5147818E-2,3.9262247E-1,-4.0575546E-1,5.273738E-1,1.1109994E-1,-8.856261E-2,-4.3783417E-1,7.1231335E-2,-5.0652575E-1,4.8024076E-1,-1.3717715E-1,-6.1512515E-3,5.276838E-1,-6.013529E-2,-5.073463E-1,2.154302E-1,2.3180312E-1,-4.8419943E-1,-1.9144608E-1,1.0365573E-1,5.1056546E-1,-3.119875E-1,2.2536197E-1,5.285789E-1,-1.655849E-1,2.3288961E-2,1.4671977E-1,-1.3212441E-1,-1.0420752E-1,1.073419E-1,9.885588E-2,-1.5552372E-1,-8.4916085E-2,1.598674E-1,5.425551E-2,-1.3331176E-1,-2.2949791E-1,1.4456373E-1,1.5864335E-1,1.4948654E-3],"categories":[],"categories_nodes":[],"categories_segments":[],"categories_sizes":[],"default_left":[0,0,0,0,0,0,0,0,0,0,0,0,0,0,0,0,0,0,0,0,0,0,0,0,0,0,0,0,0,0,0,0,0,0,0,0,0,0,0,0,0,0,0,0,0,0,0,0,0,0,0],"id":32,"left_children":[1,3,5,7,9,11,13,-1,15,-1,-1,17,19,21,23,-1,-1,25,27,29,31,-1,-1,33,-1,35,37,39,41,-1,-1,43,45,47,49,-1,-1,-1,-1,-1,-1,-1,-1,-1,-1,-1,-1,-1,-1,-1,-1],"loss_changes":[1.1050702E2,4.733753E0,5.6635803E1,6.934624E-1,2.761805E-2,1.879833E1,6.951172E0,0E0,4.77852E-1,0E0,0E0,1.1180034E1,1.3187542E1,1.556809E-1,9.258423E-1,0E0,0E0,2.6482105E0,1.6972357E1,1.9113004E0,3.7684212E0,0E0,0E0,8.640137E-1,0E0,1.3691549E0,1.3063672E0,1.0875471E1,1.3601093E0,0E0,0E0,2.7212257E0,4.8221678E-1,3.5361104E0,4.3792725E-1,0E0,0E0,0E0,0E0,0E0,0E0,0E0,0E0,0E0,0E0,0E0,0E0,0E0,0E0,0E0,0E0],"parents":[2147483647,0,0,1,1,2,2,3,3,4,4,5,5,6,6,8,8,11,11,12,12,13,13,14,14,17,17,18,18,19,19,20,20,23,23,25,25,26,26,27,27,28,28,31,31,32,32,33,33,34,34],"right_children":[2,4,6,8,10,12,14,-1,16,-1,-1,18,20,22,24,-1,-1,26,28,30,32,-1,-1,34,-1,36,38,40,42,-1,-1,44,46,48,50,-1,-1,-1,-1,-1,-1,-1,-1,-1,-1,-1,-1,-1,-1,-1,-1],"split_conditions":[1.3030993E0,2.89724E0,3.0148655E-2,2.0139282E0,1.9577193E0,2.6989448E0,4.0294775E-1,-1.5613593E-1,1.2055111E0,3.456092E-2,1.3445418E-1,7.593256E-1,2.4464092E0,2.5167992E0,3.5666149E0,1.1109994E-1,-8.856261E-2,3.7513058E0,4.227352E0,1.3002651E0,1.9040713E0,-1.3717715E-1,-6.1512515E-3,4.252768E-1,-6.013529E-2,1.5151651E0,8.4411734E-1,2.5489297E0,1.3086108E0,-1.9144608E-1,1.0365573E-1,3.300752E-2,3.2531776E0,2.5202193E0,3.1007032E0,-1.655849E-1,2.3288961E-2,1.4671977E-1,-1.3212441E-1,-1.0420752E-1,1.073419E-1,9.885588E-2,-1.5552372E-1,-8.4916085E-2,1.598674E-1,5.425551E-2,-1.3331176E-1,-2.2949791E-1,1.4456373E-1,1.5864335E-1,1.4948654E-3],"split_indices":[2,26,10,5,21,25,1,0,15,0,0,21,2,0,31,0,0,31,31,1,15,0,0,1,0,30,19,0,29,0,0,16,26,0,20,0,0,0,0,0,0,0,0,0,0,0,0,0,0,0,0],"split_type":[0,0,0,0,0,0,0,0,0,0,0,0,0,0,0,0,0,0,0,0,0,0,0,0,0,0,0,0,0,0,0,0,0,0,0,0,0,0,0,0,0,0,0,0,0,0,0,0,0,0,0],"sum_hessian":[4.1715845E3,1.24357086E2,4.0472273E3,1.1912176E2,5.2353306E0,4.0626007E2,3.6409673E3,1.1678554E2,2.336218E0,1.169525E0,4.0658054E0,2.4295456E2,1.6330551E2,7.318922E0,3.6336482E3,1.02867E0,1.3075483E0,5.4911182E1,1.8804337E2,1.4075915E1,1.492296E2,6.2910123E0,1.0279098E0,3.632376E3,1.2722851E0,4.9832058E1,5.079125E0,1.4632448E2,4.171889E1,1.24098215E1,1.6660936E0,1.4407043E2,5.1591578E0,1.1468269E1,3.6209077E3,4.6354095E1,3.4779644E0,3.7632816E0,1.3158433E0,2.583226E1,1.2049222E2,1.3350351E0,4.0383854E1,3.6225069E0,1.4044794E2,1.0148816E0,4.144276E0,1.9515485E0,9.516721E0,3.6192922E3,1.6155719E0],"tree_param":{"num_deleted":"0","num_feature":"32","num_nodes":"51","size_leaf_vector":"1"}},{"base_weights":[-5.0532687E-1,-5.072259E-1,-2.1627276E-1,-1.5277521E-1,-4.164002E-1,2.5601408E-1,-1.3599391E-1,-1.6143143E-2,-4.6604398E-1,-9.272547E-2,2.1166484E-1,-1.0256467E-1,3.103764E-1,-1.4829893E-1,-2.3849651E-1,5.74249E-2,-8.935657E-2,2.2041029E-1,-7.853529E-2,7.110286E-2,-1.195987E-1],"categories":[],"categories_nodes":[],"categories_segments":[],"categories_sizes":[],"default_left":[0,0,0,0,0,0,0,0,0,0,0,0,0,0,0,0,0,0,0,0,0],"id":33,"left_children":[1,3,5,-1,7,9,-1,11,13,15,-1,-1,17,-1,19,-1,-1,-1,-1,-1,-1],"loss_changes":[6.742554E-1,4.8797607E-2,1.3548348E0,0E0,7.160001E-1,7.453155E-1,0E0,6.4363074E-1,9.037399E-2,2.5087774E-1,0E0,0E0,9.3233365E-1,0E0,5.1412E-1,0E0,0E0,0E0,0E0,0E0,0E0],"parents":[2147483647,0,0,1,1,2,2,4,4,5,5,7,7,8,8,9,9,12,12,14,14],"right_children":[2,4,6,-1,8,10,-1,12,14,16,-1,-1,18,-1,20,-1,-1,-1,-1,-1,-1],"split_conditions":[2.6668935E0,3.7513058E0,3.902167E-1,-1.5277521E-1,2.341139E0,5.64631E-1,-1.3599391E-1,1.5370494E-1,3.0732183E0,2.721782E-1,2.1166484E-1,-1.0256467E-1,1.6614199E0,-1.4829893E-1,1.6976912E0,5.74249E-2,-8.935657E-2,2.2041029E-1,-7.853529E-2,7.110286E-2,-1.195987E-1],"split_indices":[17,31,21,0,0,29,0,19,15,1,0,0,14,0,17,0,0,0,0,0,0],"split_type":[0,0,0,0,0,0,0,0,0,0,0,0,0,0,0,0,0,0,0,0,0],"sum_hessian":[1.4272589E3,1.4171936E3,1.0065381E1,1.3817812E3,3.541231E1,3.3368618E0,6.728519E0,4.053757E0,3.1358553E1,2.3260748E0,1.0107871E0,2.005751E0,2.0480063E0,2.684865E1,4.5099034E0,1.0032479E0,1.322827E0,1.0128083E0,1.0351981E0,1.0154433E0,3.4944603E0],"tree_param":{"num_deleted":"0","num_feature":"32","num_nodes":"21","size_leaf_vector":"1"}},{"base_weights":[-5.052365E-1,-2.405476E-1,-5.065458E-1,1.536013E-1,-1.3358676E-1,-5.0722057E-1,-2.985271E-1,-1.5237051E-1,-3.2969478E-1,6.996063E-2,-1.2838928E-1,-1.3262492E-1,7.157492E-2],"categories":[],"categories_nodes":[],"categories_segments":[],"categories_sizes":[],"default_left":[0,0,0,0,0,0,0,0,0,0,0,0,0],"id":34,"left_children":[1,3,5,-1,-1,7,9,-1,11,-1,-1,-1,-1],"loss_changes":[3.7304688E-1,1.604388E0,4.7912598E-2,0E0,0E0,3.5095215E-3,5.8309156E-1,0E0,6.3269323E-1,0E0,0E0,0E0,0E0],"parents":[2147483647,0,0,1,1,2,2,5,5,6,6,8,8],"right_children":[2,4,6,-1,-1,8,10,-1,12,-1,-1,-1,-1],"split_conditions":[9.163623E-1,7.6047873E-1,4.6808143E0,1.536013E-1,-1.3358676E-1,4.286365E0,3.6898296E0,-1.5237051E-1,1.7899363E0,6.996063E-2,-1.2838928E-1,-1.3262492E-1,7.157492E-2],"split_indices":[12,1,7,0,0,2,9,0,4,0,0,0,0],"split_type":[0,0,0,0,0,0,0,0,0,0,0,0,0],"sum_hessian":[1.4270132E3,7.933085E0,1.4190801E3,1.3757219E0,6.557363E0,1.4130581E3,6.021951E0,1.4058033E3,7.254863E0,1.0219809E0,4.9999704E0,6.242374E0,1.0124887E0],"tree_param":{"num_deleted":"0","num_feature":"32","num_nodes":"13","size_leaf_vector":"1"}},{"base_weights":[-2.424327E-1,2.5318247E-1,-4.6304244E-1,-4.2369702E-1,3.977753E-1,6.247988E-2,-5.0704473E-1,3.7209243E-1,-4.9906886E-1,5.6034917E-1,2.501335E-1,3.5417792E-1,-3.7322593E-1,-5.0829166E-1,1.100919E-1,4.6589455E-1,5.2083503E-2,-1.5000519E-2,-1.5103689E-1,5.640377E-1,-2.5745744E-2,-2.1969794E-1,3.2339877E-1,4.416597E-1,-4.997479E-2,-4.8945636E-1,1.3678601E-1,-5.0903356E-1,3.7888795E-2,3.1365633E-2,1.5741587E-1,9.3250036E-2,-7.168528E-2,1.6296884E-1,8.5480547E-1,4.9269177E-2,-1.4236747E-1,2.4118274E-1,5.243495E-1,1.964831E-1,5.978888E-1,-1.3272655E-1,3.2847655E-1,-1.4939062E-1,-2.7931366E-2,5.3281183E-3,-1.5288301E-1,1.4854091E-1,3.6438772E-1,2.1551526E-1,-1.16725184E-1,1.4160375E-1,-1.056575E-2,4.1403193E-2,1.6504082E-1,-1.3274327E-1,1.211954E-1,1.9378279E-1,-1.5868451E-2,-3.802509E-2,1.3618556E-1],"categories":[],"categories_nodes":[],"categories_segments":[],"categories_sizes":[],"default_left":[0,0,0,0,0,0,0,0,0,0,0,0,0,0,0,0,0,0,0,0,0,0,0,0,0,0,0,0,0,0,0,0,0,0,0,0,0,0,0,0,0,0,0,0,0,0,0,0,0,0,0,0,0,0,0,0,0,0,0,0,0],"id":35,"left_children":[1,3,5,7,9,11,13,15,17,19,21,23,25,27,-1,29,31,-1,-1,33,-1,35,37,39,41,43,-1,45,-1,-1,-1,-1,-1,-1,47,49,-1,51,53,55,57,-1,59,-1,-1,-1,-1,-1,-1,-1,-1,-1,-1,-1,-1,-1,-1,-1,-1,-1,-1],"loss_changes":[2.0983585E2,5.8054874E1,3.0732147E1,6.458975E0,1.1569809E1,1.3282051E1,1.5217896E0,2.6455772E-1,1.63908E-1,5.9988403E-1,8.934046E0,2.2313786E0,4.268811E0,6.404724E-1,0E0,1.0062468E-1,3.233023E-1,0E0,0E0,9.2845154E-1,0E0,2.4452176E0,3.5602493E0,1.8540192E0,1.9301764E0,7.947922E-2,0E0,3.8027954E-1,0E0,0E0,0E0,0E0,0E0,0E0,1.162569E0,5.586994E0,0E0,1.0238303E1,5.610447E-1,3.0322404E0,1.001998E0,0E0,4.3976647E-1,0E0,0E0,0E0,0E0,0E0,0E0,0E0,0E0,0E0,0E0,0E0,0E0,0E0,0E0,0E0,0E0,0E0,0E0],"parents":[2147483647,0,0,1,1,2,2,3,3,4,4,5,5,6,6,7,7,8,8,9,9,10,10,11,11,12,12,13,13,15,15,16,16,19,19,21,21,22,22,23,23,24,24,25,25,27,27,34,34,35,35,37,37,38,38,39,39,40,40,42,42],"right_children":[2,4,6,8,10,12,14,16,18,20,22,24,26,28,-1,30,32,-1,-1,34,-1,36,38,40,42,44,-1,46,-1,-1,-1,-1,-1,-1,48,50,-1,52,54,56,58,-1,60,-1,-1,-1,-1,-1,-1,-1,-1,-1,-1,-1,-1,-1,-1,-1,-1,-1,-1],"split_conditions":[1.7346922E0,1.8588752E0,3.0148655E-2,1.9040713E0,7.3342603E-1,2.3703873E0,2.7886267E0,1.9772694E-1,3.902167E-1,1.4949791E0,3.7430973E0,2.1193252E0,2.5822496E0,3.1007032E0,1.100919E-1,1.4338639E0,5.995755E-1,-1.5000519E-2,-1.5103689E-1,1.3787508E0,-2.5745744E-2,2.3637347E0,3.7284079E0,1.1745449E0,2.8280764E0,1.435828E0,1.3678601E-1,1.0410092E0,3.7888795E-2,3.1365633E-2,1.5741587E-1,9.3250036E-2,-7.168528E-2,1.6296884E-1,9.151753E-1,1.6591312E0,-1.4236747E-1,7.1774864E-1,1.284705E0,2.1244714E0,2.3908355E0,-1.3272655E-1,2.867514E0,-1.4939062E-1,-2.7931366E-2,5.3281183E-3,-1.5288301E-1,1.4854091E-1,3.6438772E-1,2.1551526E-1,-1.16725184E-1,1.4160375E-1,-1.056575E-2,4.1403193E-2,1.6504082E-1,-1.3274327E-1,1.211954E-1,1.9378279E-1,-1.5868451E-2,-3.802509E-2,1.3618556E-1],"split_indices":[18,26,10,15,25,8,12,29,21,19,0,4,15,20,0,31,19,0,0,2,0,2,2,27,12,30,0,2,0,0,0,0,0,0,5,4,0,29,21,20,21,0,3,0,0,0,0,0,0,0,0,0,0,0,0,0,0,0,0,0,0],"split_type":[0,0,0,0,0,0,0,0,0,0,0,0,0,0,0,0,0,0,0,0,0,0,0,0,0,0,0,0,0,0,0,0,0,0,0,0,0,0,0,0,0,0,0,0,0,0,0,0,0,0,0,0,0,0,0,0,0,0,0,0,0],"sum_hessian":[1.9170844E3,5.904499E2,1.3266345E3,1.0358927E2,4.8686063E2,1.0246522E2,1.2241693E3,8.621819E0,9.496745E1,2.3038254E2,2.564781E2,6.148746E1,4.0977753E1,1.222843E3,1.3261759E0,6.3148947E0,2.3069232E0,1.0388107E0,9.392864E1,2.292013E2,1.1812375E0,3.432999E1,2.221481E2,5.047005E1,1.1017411E1,3.629921E1,4.678541E0,1.2216128E3,1.2302572E0,1.2729466E0,5.0419483E0,1.1851828E0,1.1217403E0,2.1657106E2,1.2630237E1,1.7095215E1,1.7234774E1,1.5920992E2,6.2938187E1,2.052189E1,2.994816E1,5.325713E0,5.6916986E0,3.5285023E1,1.0141895E0,1.3026901E0,1.2203102E3,7.504728E0,5.125509E0,6.5136952E0,1.0581519E1,8.6371414E1,7.283851E1,4.335458E0,5.860273E1,4.7531333E0,1.5768757E1,2.7895779E1,2.052382E0,1.227639E0,4.4640594E0],"tree_param":{"num_deleted":"0","num_feature":"32","num_nodes":"61","size_leaf_vector":"1"}},{"base_weights":[4.4564596E-1,-3.9769483E-1,4.7584268E-1,-4.8847497E-1,4.0314627E-1,1.2939158E-1,5.1792836E-1,2.7675727E-1,-1.5560487E-1,-6.318024E-3,1.3386734E-1,2.0252886E-1,-4.1579705E-1,9.3510054E-2,5.1972955E-1,-1.8645225E-2,1.200769E-1,9.2769664E-4,4.7075692E-1,4.0982977E-1,-1.5227899E-1,-1.6843659E-1,1.397759E-1,5.2009326E-1,-5.478095E-2,-4.6513072E-1,2.3497021E-1,5.0560313E-1,-1.3320698E-1,-9.078461E-3,1.953099E-1,5.203983E-1,7.734061E-5,1.1287787E-1,-1.566624E-1,-6.1695706E-2,1.111443E-1,1.5861103E-1,-2.9938333E-2,1.02892965E-1,1.5632947E-1],"categories":[],"categories_nodes":[],"categories_segments":[],"categories_sizes":[],"default_left":[0,0,0,0,0,0,0,0,0,0,0,0,0,0,0,0,0,0,0,0,0,0,0,0,0,0,0,0,0,0,0,0,0,0,0,0,0,0,0,0,0],"id":36,"left_children":[1,3,5,7,9,11,13,15,-1,-1,-1,17,19,21,23,-1,-1,25,27,29,-1,-1,-1,31,-1,33,35,37,-1,-1,-1,39,-1,-1,-1,-1,-1,-1,-1,-1,-1],"loss_changes":[8.1288635E1,8.239849E0,4.4767944E1,2.4509811E0,2.2524476E-1,1.3418284E1,2.0472412E0,2.1083084E-1,0E0,0E0,0E0,1.5980168E1,3.2307954E0,3.3849604E0,7.922363E-1,0E0,0E0,1.8621866E1,4.2666645E0,5.02052E-1,0E0,0E0,0E0,4.326172E-1,0E0,2.9373512E0,6.861948E0,1.7675991E0,0E0,0E0,0E0,1.5991211E-1,0E0,0E0,0E0,0E0,0E0,0E0,0E0,0E0,0E0],"parents":[2147483647,0,0,1,1,2,2,3,3,4,4,5,5,6,6,7,7,11,11,12,12,13,13,14,14,17,17,18,18,19,19,23,23,25,25,26,26,27,27,31,31],"right_children":[2,4,6,8,10,12,14,16,-1,-1,-1,18,20,22,24,-1,-1,26,28,30,-1,-1,-1,32,-1,34,36,38,-1,-1,-1,40,-1,-1,-1,-1,-1,-1,-1,-1,-1],"split_conditions":[1.3497965E0,2.2905054E0,3.0148655E-2,8.335816E-1,1.0660616E0,4.227352E0,4.252768E-1,4.1747828E0,-1.5560487E-1,-6.318024E-3,1.3386734E-1,3.0405004E0,1.4140266E0,2.5730782E0,3.5666149E0,-1.8645225E-2,1.200769E-1,8.429477E-1,3.9415548E0,5.9605775E0,-1.5227899E-1,-1.6843659E-1,1.397759E-1,3.1007032E0,-5.478095E-2,9.1508216E-1,8.928082E-1,1.4140266E0,-1.3320698E-1,-9.078461E-3,1.953099E-1,1.0341092E0,7.734061E-5,1.1287787E-1,-1.566624E-1,-6.1695706E-2,1.111443E-1,1.5861103E-1,-2.9938333E-2,1.02892965E-1,1.5632947E-1],"split_indices":[2,30,10,0,11,31,1,9,0,0,0,2,29,0,31,0,0,29,2,0,0,0,0,20,0,23,1,29,0,0,0,18,0,0,0,0,0,0,0,0,0],"split_type":[0,0,0,0,0,0,0,0,0,0,0,0,0,0,0,0,0,0,0,0,0,0,0,0,0,0,0,0,0,0,0,0,0,0,0,0,0,0,0,0,0],"sum_hessian":[3.1835977E3,1.0963096E2,3.0739668E3,9.881925E1,1.0811705E1,3.3340848E2,2.7405583E3,3.4428484E0,9.53764E1,1.0438313E0,9.767874E0,2.9452618E2,3.888229E1,1.1805128E1,2.7287532E3,1.0521829E0,2.3906655E0,1.6871948E2,1.258067E2,3.5439875E0,3.5338303E1,4.095192E0,7.709936E0,2.7276E3,1.153042E0,5.6072548E1,1.12646935E2,1.21621155E2,4.185547E0,1.5643202E0,1.9796673E0,2.7259993E3,1.6008044E0,3.2068865E0,5.286566E1,2.6373636E1,8.627329E1,1.17273026E2,4.3481293E0,1.2640737E1,2.7133586E3],"tree_param":{"num_deleted":"0","num_feature":"32","num_nodes":"41","size_leaf_vector":"1"}},{"base_weights":[-5.0146174E-1,-5.039537E-1,-1.788733E-1,-1.519994E-1,-3.9177564E-1,2.6359376E-1,-1.3159265E-1,2.5576336E-2,-4.5186344E-1,-8.014799E-2,2.0195796E-1,-9.6795924E-2,1.011798E-1,-1.4599702E-1,-2.06256E-1,-8.460049E-2,5.3136755E-2,5.945529E-2,-1.1305874E-1],"categories":[],"categories_nodes":[],"categories_segments":[],"categories_sizes":[],"default_left":[0,0,0,0,0,0,0,0,0,0,0,0,0,0,0,0,0,0,0],"id":37,"left_children":[1,3,5,-1,7,9,-1,11,13,15,-1,-1,-1,-1,17,-1,-1,-1,-1],"loss_changes":[7.727661E-1,1.2524414E-1,1.2395645E0,0E0,7.521229E-1,6.5119874E-1,0E0,6.1494005E-1,1.20676994E-1,2.161266E-1,0E0,0E0,0E0,0E0,4.1591844E-1,0E0,0E0,0E0,0E0],"parents":[2147483647,0,0,1,1,2,2,4,4,5,5,7,7,8,8,9,9,14,14],"right_children":[2,4,6,-1,8,10,-1,12,14,16,-1,-1,-1,-1,18,-1,-1,-1,-1],"split_conditions":[2.6668935E0,3.7513058E0,3.902167E-1,-1.519994E-1,2.341139E0,5.750474E-1,-1.3159265E-1,2.340822E0,3.0732183E0,2.4382455E0,2.0195796E-1,-9.6795924E-2,1.011798E-1,-1.4599702E-1,1.6976912E0,-8.460049E-2,5.3136755E-2,5.945529E-2,-1.1305874E-1],"split_indices":[17,31,21,0,0,29,0,12,15,27,0,0,0,0,17,0,0,0,0],"split_type":[0,0,0,0,0,0,0,0,0,0,0,0,0,0,0,0,0,0,0],"sum_hessian":[1.0723927E3,1.063614E3,8.778576E0,1.0350833E3,2.8530785E1,3.2418957E0,5.53668E0,3.6630044E0,2.486778E1,2.1999726E0,1.041923E0,1.7134787E0,1.9495256E0,2.0922422E1,3.9453568E0,1.17889E0,1.0210826E0,1.1225617E0,2.8227952E0],"tree_param":{"num_deleted":"0","num_feature":"32","num_nodes":"19","size_leaf_vector":"1"}},{"base_weights":[-5.013271E-1,-2.0151539E-1,-5.030338E-1,1.3366564E-1,-1.285796E-1,-5.0393575E-1,-2.5643367E-1,-1.514543E-1,-2.8802615E-1,-1.22131154E-1,6.936533E-2,-1.264313E-1,7.0336945E-2],"categories":[],"categories_nodes":[],"categories_segments":[],"categories_sizes":[],"default_left":[0,0,0,0,0,0,0,0,0,0,0,0,0],"id":38,"left_children":[1,3,5,-1,-1,7,9,-1,11,-1,-1,-1,-1],"loss_changes":[4.4766235E-1,1.3285698E0,1.0797119E-1,0E0,0E0,6.3568115E-2,5.29232E-1,0E0,5.722629E-1,0E0,0E0,0E0,0E0],"parents":[2147483647,0,0,1,1,2,2,5,5,6,6,8,8],"right_children":[2,4,6,-1,-1,8,10,-1,12,-1,-1,-1,-1],"split_conditions":[9.163623E-1,1.1980064E0,4.6808143E0,1.3366564E-1,-1.285796E-1,4.286365E0,9.510883E-1,-1.514543E-1,1.784953E0,-1.22131154E-1,6.936533E-2,-1.264313E-1,7.0336945E-2],"split_indices":[12,20,7,0,0,2,1,0,4,0,0,0,0],"split_type":[0,0,0,0,0,0,0,0,0,0,0,0,0],"sum_hessian":[1.0720208E3,6.7420754E0,1.0652787E3,1.5015074E0,5.240568E0,1.0603568E3,4.9218135E0,1.0545646E3,5.792237E0,3.8862493E0,1.035564E0,4.7681293E0,1.0241076E0],"tree_param":{"num_deleted":"0","num_feature":"32","num_nodes":"13","size_leaf_vector":"1"}},{"base_weights":[-2.3205328E-1,2.3933032E-1,-4.5599705E-1,-4.890313E-1,3.588825E-1,5.4512933E-2,-5.0367707E-1,4.6626087E-2,-1.5035248E-1,2.1600968E-1,5.427764E-1,2.970526E-1,-3.623318E-1,-5.051253E-1,1.0051686E-1,-2.0003867E-1,3.2544646E-1,5.543936E-1,-8.8942885E-2,4.7410253E-1,1.2517415E-1,-4.8057982E-1,1.2798934E-1,-5.061039E-1,3.338444E-2,4.0829483E-1,-3.152559E-1,-2.4327071E-1,3.6340535E-1,1.5899926E-1,9.168121E-1,9.136361E-2,-1.0431751E-1,5.4186684E-1,-5.9851006E-2,-1.7181352E-1,4.489967E-1,-1.4716585E-1,-3.0991536E-2,4.9202996E-3,-1.5205944E-1,2.969512E-2,1.5356018E-1,-1.3671671E-1,1.4173006E-1,-1.2339939E-1,9.8981984E-2,1.6001026E-1,7.899099E-2,3.6669114E-1,1.52014E-1,-4.8468683E-2,1.767841E-1,-1.5132192E-1,1.08405404E-1,-1.3634405E-1,3.3509687E-2,1.5440157E-1,1.0575876E-2],"categories":[],"categories_nodes":[],"categories_segments":[],"categories_sizes":[],"default_left":[0,0,0,0,0,0,0,0,0,0,0,0,0,0,0,0,0,0,0,0,0,0,0,0,0,0,0,0,0,0,0,0,0,0,0,0,0,0,0,0,0,0,0,0,0,0,0,0,0,0,0,0,0,0,0,0,0,0,0],"id":39,"left_children":[1,3,5,7,9,11,13,-1,-1,15,17,19,21,23,-1,25,27,29,31,33,35,37,-1,39,-1,41,43,45,47,-1,49,-1,-1,51,53,55,57,-1,-1,-1,-1,-1,-1,-1,-1,-1,-1,-1,-1,-1,-1,-1,-1,-1,-1,-1,-1,-1,-1],"loss_changes":[1.5614502E2,4.1686493E1,2.4427246E1,6.072254E-1,1.0656876E1,8.855646E0,1.2829285E0,0E0,0E0,1.0648288E1,1.360302E0,1.6219587E0,3.2163095E0,6.086731E-1,0E0,3.5650291E0,4.069481E0,1.0662346E0,5.221221E-1,1.0041847E0,2.9039032E0,5.670929E-2,0E0,3.7190247E-1,0E0,2.1339607E-1,4.838456E0,1.304965E0,2.8075905E0,0E0,5.960798E-1,0E0,0E0,8.933706E-1,9.172297E-1,1.3374038E0,3.7145734E-1,0E0,0E0,0E0,0E0,0E0,0E0,0E0,0E0,0E0,0E0,0E0,0E0,0E0,0E0,0E0,0E0,0E0,0E0,0E0,0E0,0E0,0E0],"parents":[2147483647,0,0,1,1,2,2,3,3,4,4,5,5,6,6,9,9,10,10,11,11,12,12,13,13,15,15,16,16,17,17,18,18,19,19,20,20,21,21,23,23,25,25,26,26,27,27,28,28,30,30,33,33,34,34,35,35,36,36],"right_children":[2,4,6,8,10,12,14,-1,-1,16,18,20,22,24,-1,26,28,30,32,34,36,38,-1,40,-1,42,44,46,48,-1,50,-1,-1,52,54,56,58,-1,-1,-1,-1,-1,-1,-1,-1,-1,-1,-1,-1,-1,-1,-1,-1,-1,-1,-1,-1,-1,-1],"split_conditions":[1.7346922E0,1.9925283E0,3.0148655E-2,1.4118016E0,1.531261E0,2.3703873E0,2.7886267E0,4.6626087E-2,-1.5035248E-1,2.9269521E0,1.538464E0,2.8677902E0,2.5822496E0,3.1007032E0,1.0051686E-1,6.429465E-1,9.1508216E-1,1.3787508E0,1.0375693E0,2.1193252E0,2.2464938E0,1.4024131E0,1.2798934E-1,1.0410092E0,3.338444E-2,1.1739359E0,3.5696602E0,3.117713E0,5.64631E-1,1.5899926E-1,3.306404E0,9.136361E-2,-1.0431751E-1,2.0657823E0,8.5191023E-1,2.1244714E0,2.207439E0,-1.4716585E-1,-3.0991536E-2,4.9202996E-3,-1.5205944E-1,2.969512E-2,1.5356018E-1,-1.3671671E-1,1.4173006E-1,-1.2339939E-1,9.8981984E-2,1.6001026E-1,7.899099E-2,3.6669114E-1,1.52014E-1,-4.8468683E-2,1.767841E-1,-1.5132192E-1,1.08405404E-1,-1.3634405E-1,3.3509687E-2,1.5440157E-1,1.0575876E-2],"split_indices":[18,3,10,19,20,8,12,0,0,7,4,26,15,20,0,21,23,2,11,4,15,30,0,2,0,30,2,2,29,0,3,0,0,26,1,20,5,0,0,0,0,0,0,0,0,0,0,0,0,0,0,0,0,0,0,0,0,0,0],"split_type":[0,0,0,0,0,0,0,0,0,0,0,0,0,0,0,0,0,0,0,0,0,0,0,0,0,0,0,0,0,0,0,0,0,0,0,0,0,0,0,0,0,0,0,0,0,0,0,0,0,0,0,0,0,0,0,0,0,0,0],"sum_hessian":[1.4771244E3,4.757147E2,1.0014097E3,6.663795E1,4.0907675E2,8.552715E1,9.1588257E2,1.0142483E0,6.56237E1,2.3143921E2,1.7763754E2,5.424959E1,3.127756E1,9.14701E2,1.181623E0,4.802678E1,1.8341243E2,1.7455E2,3.0875323E0,2.5856632E1,2.8392962E1,2.7540693E1,3.736866E0,9.134298E2,1.2711633E0,7.2426653E0,4.0784115E1,1.1137448E1,1.7227498E2,1.6584837E2,8.701636E0,1.1547894E0,1.9327428E0,2.2931555E1,2.9250767E0,1.5054989E1,1.3337974E1,2.65389E1,1.0017912E0,1.2984278E0,9.1213135E2,2.3074217E0,4.9352436E0,3.496954E1,5.8145742E0,8.830753E0,2.3066952E0,6.2251167E1,1.100238E2,3.8518205E0,4.849816E0,1.2960317E0,2.1635523E1,1.3269823E0,1.5980943E0,7.236773E0,7.8182154E0,1.1300296E1,2.037678E0],"tree_param":{"num_deleted":"0","num_feature":"32","num_nodes":"59","size_leaf_vector":"1"}},{"base_weights":[4.3552226E-1,-3.8767588E-1,4.6516764E-1,-4.7999766E-1,3.7714967E-1,1.1895543E-1,5.1139367E-1,2.4113885E-1,-1.5381208E-1,7.0905E-2,1.3609989E-1,1.8825011E-1,-3.9551282E-1,2.3428997E-1,5.1455545E-1,-1.950898E-2,1.1157162E-1,-5.0865933E-2,8.356152E-2,2.890547E-3,4.5537508E-1,3.8566563E-1,-1.494595E-1,-7.9724705E-1,1.4939617E-1,5.1498777E-1,-5.0220266E-2,-4.399769E-1,2.0359066E-1,4.9153993E-1,-1.2642775E-1,-1.3067222E-2,1.8329336E-1,-9.526083E-2,-2.7344665E-1,-2.5192512E-2,1.5463838E-1,9.904768E-2,-1.4909935E-1,-5.965394E-2,1.0225125E-1,1.554026E-1,-2.9562343E-2],"categories":[],"categories_nodes":[],"categories_segments":[],"categories_sizes":[],"default_left":[0,0,0,0,0,0,0,0,0,0,0,0,0,0,0,0,0,0,0,0,0,0,0,0,0,0,0,0,0,0,0,0,0,0,0,0,0,0,0,0,0,0,0],"id":40,"left_children":[1,3,5,7,9,11,13,15,-1,17,-1,19,21,23,25,-1,-1,-1,-1,27,29,31,-1,33,-1,35,-1,37,39,41,-1,-1,-1,-1,-1,-1,-1,-1,-1,-1,-1,-1,-1],"loss_changes":[5.9290955E1,6.164629E0,3.736331E1,1.9175854E0,1.9483435E-1,9.940578E0,1.6866455E0,1.8353476E-1,0E0,2.0309015E-1,0E0,1.2108689E1,2.8531866E0,7.2261643E0,6.8725586E-1,0E0,0E0,0E0,0E0,1.3012585E1,3.3839207E0,4.5384586E-1,0E0,1.1755943E-2,0E0,6.210327E-1,0E0,2.1691008E0,5.631679E0,1.5610161E0,0E0,0E0,0E0,0E0,0E0,0E0,0E0,0E0,0E0,0E0,0E0,0E0,0E0],"parents":[2147483647,0,0,1,1,2,2,3,3,4,4,5,5,6,6,7,7,9,9,11,11,12,12,13,13,14,14,19,19,20,20,21,21,23,23,25,25,27,27,28,28,29,29],"right_children":[2,4,6,8,10,12,14,16,-1,18,-1,20,22,24,26,-1,-1,-1,-1,28,30,32,-1,34,-1,36,-1,38,40,42,-1,-1,-1,-1,-1,-1,-1,-1,-1,-1,-1,-1,-1],"split_conditions":[1.3497965E0,2.2905054E0,3.0148655E-2,8.335816E-1,1.1167196E0,4.227352E0,1.5222244E0,4.1747828E0,-1.5381208E-1,3.2447085E0,1.3609989E-1,3.0405004E0,1.4140266E0,5.0589323E-1,3.5666149E0,-1.950898E-2,1.1157162E-1,-5.0865933E-2,8.356152E-2,8.429477E-1,3.9415548E0,5.9605775E0,-1.494595E-1,4.0294775E-1,1.4939617E-1,3.134732E-1,-5.0220266E-2,9.1508216E-1,2.5489297E0,1.4140266E0,-1.2642775E-1,-1.3067222E-2,1.8329336E-1,-9.526083E-2,-2.7344665E-1,-2.5192512E-2,1.5463838E-1,9.904768E-2,-1.4909935E-1,-5.965394E-2,1.0225125E-1,1.554026E-1,-2.9562343E-2],"split_indices":[2,30,10,0,12,31,2,9,0,31,0,2,29,1,31,0,0,0,0,29,2,0,0,1,0,14,0,23,0,29,0,0,0,0,0,0,0,0,0,0,0,0,0],"split_type":[0,0,0,0,0,0,0,0,0,0,0,0,0,0,0,0,0,0,0,0,0,0,0,0,0,0,0,0,0,0,0,0,0,0,0,0,0,0,0,0,0,0,0],"sum_hessian":[2.4211658E3,8.374146E1,2.337424E3,7.505412E1,8.687342E0,2.757503E2,2.0616738E3,2.980099E0,7.207402E1,2.121812E0,6.56553E0,2.4357661E2,3.217369E1,2.4105911E1,2.037568E3,1.042337E0,1.9377621E0,1.068173E0,1.0536389E0,1.4439258E2,9.918403E1,3.4177096E0,2.8755981E1,4.495799E0,1.9610113E1,2.0365217E3,1.0462459E0,4.4657833E1,9.973476E1,9.5677086E1,3.5069373E0,1.4541717E0,1.963538E0,1.5916853E0,2.9041135E0,1.4693332E0,2.0350524E3,2.748322E0,4.1909508E1,2.5249369E1,7.448539E1,9.168653E1,3.990558E0],"tree_param":{"num_deleted":"0","num_feature":"32","num_nodes":"43","size_leaf_vector":"1"}},{"base_weights":[-4.9777573E-1,-5.010549E-1,-1.3338153E-1,-1.5140137E-1,-3.6750486E-1,2.7953956E-1,-1.2612309E-1,5.6166988E-2,-4.3784958E-1,-7.0055805E-2,2.0349851E-1,-8.940384E-2,9.68937E-2,-1.4384928E-1,-1.7548248E-1,5.154854E-2,-8.0608636E-2,-1.0840883E-1,6.1461482E-2],"categories":[],"categories_nodes":[],"categories_segments":[],"categories_sizes":[],"default_left":[0,0,0,0,0,0,0,0,0,0,0,0,0,0,0,0,0,0,0],"id":41,"left_children":[1,3,5,-1,7,9,-1,11,13,15,-1,-1,-1,-1,17,-1,-1,-1,-1],"loss_changes":[8.96286E-1,2.001648E-1,1.1310478E0,0E0,7.6165247E-1,6.201458E-1,0E0,5.127901E-1,1.4885664E-1,1.9488035E-1,0E0,0E0,0E0,0E0,3.9206743E-1,0E0,0E0,0E0,0E0],"parents":[2147483647,0,0,1,1,2,2,4,4,5,5,7,7,8,8,9,9,14,14],"right_children":[2,4,6,-1,8,10,-1,12,14,16,-1,-1,-1,-1,18,-1,-1,-1,-1],"split_conditions":[2.6668935E0,3.7513058E0,3.902167E-1,-1.5140137E-1,2.341139E0,5.977285E-1,-1.2612309E-1,1.5370494E-1,3.0732183E0,2.9443321E0,2.0349851E-1,-8.940384E-2,9.68937E-2,-1.4384928E-1,2.9867468E0,5.154854E-2,-8.0608636E-2,-1.0840883E-1,6.1461482E-2],"split_indices":[17,31,21,0,0,29,0,19,15,3,0,0,0,0,26,0,0,0,0],"split_type":[0,0,0,0,0,0,0,0,0,0,0,0,0,0,0,0,0,0,0],"sum_hessian":[8.0503265E2,7.9748114E2,7.5515084E0,7.737502E2,2.373101E1,3.1073499E0,4.4441586E0,3.4078383E0,2.0323172E1,2.0950594E0,1.0122904E0,1.41395E0,1.9938884E0,1.6824825E1,3.4983459E0,1.0055596E0,1.0894998E0,2.3834682E0,1.1148777E0],"tree_param":{"num_deleted":"0","num_feature":"32","num_nodes":"19","size_leaf_vector":"1"}},{"base_weights":[-4.9757832E-1,-1.5937294E-1,-4.9980697E-1,1.1978918E-1,-1.2310625E-1,-5.0101405E-1,-2.0956387E-1,-1.5066814E-1,-2.5726113E-1,7.249351E-2,-1.14797585E-1,6.975553E-2,-1.218173E-1],"categories":[],"categories_nodes":[],"categories_segments":[],"categories_sizes":[],"default_left":[0,0,0,0,0,0,0,0,0,0,0,0,0],"id":42,"left_children":[1,3,5,-1,-1,7,9,-1,11,-1,-1,-1,-1],"loss_changes":[5.2757263E-1,1.1091759E0,1.7523193E-1,0E0,0E0,1.0609436E-1,4.8545533E-1,0E0,5.3102696E-1,0E0,0E0,0E0,0E0],"parents":[2147483647,0,0,1,1,2,2,5,5,6,6,8,8],"right_children":[2,4,6,-1,-1,8,10,-1,12,-1,-1,-1,-1],"split_conditions":[9.163623E-1,7.6047873E-1,4.6808143E0,1.1978918E-1,-1.2310625E-1,4.286365E0,2.6083164E0,-1.5066814E-1,1.4097352E0,7.249351E-2,-1.14797585E-1,6.975553E-2,-1.218173E-1],"split_indices":[12,1,7,0,0,2,2,0,21,0,0,0,0],"split_type":[0,0,0,0,0,0,0,0,0,0,0,0,0],"sum_hessian":[8.045892E2,5.741917E0,7.988472E2,1.5967331E0,4.145184E0,7.948155E2,4.0317345E0,7.8982446E2,4.991027E0,1.0080379E0,3.0236967E0,1.0318669E0,3.9591599E0],"tree_param":{"num_deleted":"0","num_feature":"32","num_nodes":"13","size_leaf_vector":"1"}},{"base_weights":[-2.2196898E-1,2.2318913E-1,-4.4676155E-1,-4.8167837E-1,3.3100432E-1,6.424933E-2,-5.00753E-1,2.9945876E-2,-1.4898778E-1,1.8833852E-1,5.3303266E-1,3.0551898E-1,-2.9266217E-1,-5.024449E-1,9.2179626E-2,-1.8650316E-1,2.83884E-1,5.424289E-1,-6.753025E-2,2.1131203E-1,5.813437E-1,-4.1500464E-1,1.2356107E-1,-5.03739E-1,2.9345207E-2,-2.8511852E-1,1.3147973E-1,4.9745026E-1,1.8160073E-1,1.55792E-1,7.8355914E-1,-2.699092E-1,2.7857888E-1,2.023532E-1,1.5489983E-2,1.1957183E-1,-1.4417674E-1,5.1907944E-3,-1.5142557E-1,1.1283874E-1,-1.3021347E-1,1.5848401E-1,-1.4037254E-3,-1.4260018E-2,1.5263985E-1,3.0415013E-1,1.3747026E-1,6.0841862E-2,-1.473904E-1,1.4232567E-1,5.154529E-2],"categories":[],"categories_nodes":[],"categories_segments":[],"categories_sizes":[],"default_left":[0,0,0,0,0,0,0,0,0,0,0,0,0,0,0,0,0,0,0,0,0,0,0,0,0,0,0,0,0,0,0,0,0,0,0,0,0,0,0,0,0,0,0,0,0,0,0,0,0,0,0],"id":43,"left_children":[1,3,5,7,9,11,13,-1,-1,15,17,19,21,23,-1,25,27,29,-1,31,33,35,-1,37,-1,39,-1,41,43,-1,45,47,49,-1,-1,-1,-1,-1,-1,-1,-1,-1,-1,-1,-1,-1,-1,-1,-1,-1,-1],"loss_changes":[1.1408565E2,2.9255802E1,2.0923813E1,4.9461174E-1,9.487968E0,6.396701E0,1.0908356E0,0E0,0E0,7.0914335E0,1.0990486E0,1.0254626E0,2.761357E0,5.8052063E-1,0E0,2.6216025E0,3.3393078E0,3.4999466E-1,0E0,1.1923536E0,4.922378E-1,1.584454E0,0E0,3.6898804E-1,0E0,3.6694245E0,0E0,7.806568E-1,8.101397E0,0E0,2.7809572E-1,5.957557E-1,5.6186223E-1,0E0,0E0,0E0,0E0,0E0,0E0,0E0,0E0,0E0,0E0,0E0,0E0,0E0,0E0,0E0,0E0,0E0,0E0],"parents":[2147483647,0,0,1,1,2,2,3,3,4,4,5,5,6,6,9,9,10,10,11,11,12,12,13,13,15,15,16,16,17,17,19,19,20,20,21,21,23,23,25,25,27,27,28,28,30,30,31,31,32,32],"right_children":[2,4,6,8,10,12,14,-1,-1,16,18,20,22,24,-1,26,28,30,-1,32,34,36,-1,38,-1,40,-1,42,44,-1,46,48,50,-1,-1,-1,-1,-1,-1,-1,-1,-1,-1,-1,-1,-1,-1,-1,-1,-1,-1],"split_conditions":[1.7346922E0,1.9925283E0,3.0148655E-2,2.3021762E0,1.531261E0,2.2845442E0,2.7886267E0,2.9945876E-2,-1.4898778E-1,2.974653E0,3.960596E0,2.0587568E0,2.4196365E0,3.1007032E0,9.2179626E-2,3.5696602E0,5.64631E-1,1.3787508E0,-6.753025E-2,1.5999349E0,1.2282922E0,2.3116198E0,1.2356107E-1,1.0410092E0,2.9345207E-2,6.429465E-1,1.3147973E-1,2.4382455E0,2.3052301E0,1.55792E-1,1.0716876E0,9.697887E-1,1.3101029E0,2.023532E-1,1.5489983E-2,1.1957183E-1,-1.4417674E-1,5.1907944E-3,-1.5142557E-1,1.1283874E-1,-1.3021347E-1,1.5848401E-1,-1.4037254E-3,-1.4260018E-2,1.5263985E-1,3.0415013E-1,1.3747026E-1,6.0841862E-2,-1.473904E-1,1.4232567E-1,5.154529E-2],"split_indices":[18,3,10,17,20,8,12,0,0,7,3,14,15,20,0,2,29,2,0,30,1,31,0,2,0,21,0,27,15,0,29,15,21,0,0,0,0,0,0,0,0,0,0,0,0,0,0,0,0,0,0],"split_type":[0,0,0,0,0,0,0,0,0,0,0,0,0,0,0,0,0,0,0,0,0,0,0,0,0,0,0,0,0,0,0,0,0,0,0,0,0,0,0,0,0,0,0,0,0,0,0,0,0,0,0],"sum_hessian":[1.1380822E3,3.8186993E2,7.562123E2,5.020104E1,3.3166888E2,7.2245224E1,6.8396704E2,1.115796E0,4.9085243E1,1.9552663E2,1.3614227E2,4.3191837E1,2.9053387E1,6.829152E2,1.0518265E0,3.9522186E1,1.5600444E2,1.3475662E2,1.3856429E0,3.351203E1,9.679809E0,2.5104862E1,3.948524E0,6.816066E2,1.3086146E0,3.460385E1,4.918333E0,4.9268635E1,1.067358E2,1.2584302E2,8.913608E0,3.7404757E0,2.9771555E1,7.9994807E0,1.6803279E0,1.4940379E0,2.3610825E1,1.2912687E0,6.8031537E2,6.0804496E0,2.8523401E1,4.6369556E1,2.8990788E0,6.3277737E1,4.3458065E1,3.980043E0,4.9335647E0,1.2198364E0,2.5206392E0,9.288761E0,2.0482794E1],"tree_param":{"num_deleted":"0","num_feature":"32","num_nodes":"51","size_leaf_vector":"1"}},{"base_weights":[4.2526773E-1,-3.7818953E-1,4.544244E-1,-4.719894E-1,3.5945883E-1,1.0601085E-1,5.063772E-1,2.0843816E-1,-1.5235399E-1,2.1855094E-2,1.2984951E-1,3.683152E-1,-1.716853E-2,2.1709637E-1,5.0983274E-1,-1.99616E-2,1.0325717E-1,-4.744813E-1,4.8375228E-1,9.470226E-2,-3.9391652E-1,-2.0388019E-1,1.4605227E-1,-3.4931667E-2,5.104604E-1,-1.8858997E-2,-5.249066E-1,-9.053227E-2,5.0338703E-1,-3.3177742E-1,2.5985736E-1,9.023404E-2,-4.5801133E-1,1.5327133E-1,-2.2763025E-2,-1.7132463E-1,-2.8935535E-2,2.8522527E-2,1.5261096E-1,-1.24168895E-1,1.6558808E-1,-1.1006752E-1,9.551763E-2,-4.247661E-2,-1.5266868E-1],"categories":[],"categories_nodes":[],"categories_segments":[],"categories_sizes":[],"default_left":[0,0,0,0,0,0,0,0,0,0,0,0,0,0,0,0,0,0,0,0,0,0,0,0,0,0,0,0,0,0,0,0,0,0,0,0,0,0,0,0,0,0,0,0,0],"id":44,"left_children":[1,3,5,7,9,11,13,15,-1,-1,-1,17,19,21,23,-1,-1,25,27,29,31,-1,-1,-1,33,-1,35,-1,37,39,41,-1,43,-1,-1,-1,-1,-1,-1,-1,-1,-1,-1,-1,-1],"loss_changes":[4.3321747E1,4.6704025E0,3.2128326E1,1.5244112E0,1.3472629E-1,7.5014324E0,1.435669E0,1.580164E-1,0E0,0E0,0E0,7.445511E0,6.7303295E0,5.168932E0,6.600342E-1,0E0,0E0,1.6293836E-1,1.1657019E0,8.76734E0,1.7652879E0,0E0,0E0,0E0,4.3618774E-1,0E0,1.08605385E-1,0E0,9.164429E-2,2.7571664E0,3.3967881E0,0E0,4.7313643E-1,0E0,0E0,0E0,0E0,0E0,0E0,0E0,0E0,0E0,0E0,0E0,0E0],"parents":[2147483647,0,0,1,1,2,2,3,3,4,4,5,5,6,6,7,7,11,11,12,12,13,13,14,14,17,17,18,18,19,19,20,20,24,24,26,26,28,28,29,29,30,30,32,32],"right_children":[2,4,6,8,10,12,14,16,-1,-1,-1,18,20,22,24,-1,-1,26,28,30,32,-1,-1,-1,34,-1,36,-1,38,40,42,-1,44,-1,-1,-1,-1,-1,-1,-1,-1,-1,-1,-1,-1],"split_conditions":[1.3497965E0,2.2905054E0,3.0148655E-2,8.335816E-1,1.1167196E0,2.6260102E0,1.5222244E0,4.1747828E0,-1.5235399E-1,2.1855094E-2,1.2984951E-1,2.2150457E0,1.7537102E0,5.0589323E-1,3.134732E-1,-1.99616E-2,1.0325717E-1,2.439414E-2,1.0014804E-1,7.72984E-1,2.1646032E0,-2.0388019E-1,1.4605227E-1,-3.4931667E-2,3.1373003E0,-1.8858997E-2,1.117942E0,-9.053227E-2,2.047E0,3.6475632E0,5.7713E-1,9.023404E-2,1.4365574E0,1.5327133E-1,-2.2763025E-2,-1.7132463E-1,-2.8935535E-2,2.8522527E-2,1.5261096E-1,-1.24168895E-1,1.6558808E-1,-1.1006752E-1,9.551763E-2,-4.247661E-2,-1.5266868E-1],"split_indices":[2,30,10,0,12,9,2,9,0,0,0,12,29,1,14,0,0,20,16,21,12,0,0,0,27,0,21,0,31,2,4,0,4,0,0,0,0,0,0,0,0,0,0,0,0],"split_type":[0,0,0,0,0,0,0,0,0,0,0,0,0,0,0,0,0,0,0,0,0,0,0,0,0,0,0,0,0,0,0,0,0,0,0,0,0,0,0,0,0,0,0,0,0],"sum_hessian":[1.8409537E3,6.40478E1,1.776906E3,5.7141758E1,6.90604E0,2.3097139E2,1.5459346E3,2.6195781E0,5.452218E1,1.8138133E0,5.092227E0,7.316982E1,1.5780157E2,1.9002035E1,1.5269326E3,1.0343257E0,1.5852524E0,8.439976E0,6.472985E1,1.2224964E2,3.555193E1,4.0429277E0,1.4959107E1,1.3440053E0,1.5255885E3,1.166291E0,7.273685E0,1.228097E0,6.3501755E1,3.3844406E1,8.840523E1,2.6911328E0,3.2860798E1,1.5245626E3,1.025969E0,6.2655463E0,1.0081385E0,1.0588552E0,6.2442898E1,3.1453346E1,2.3910623E0,7.101319E0,8.130391E1,5.0763288E0,2.7784468E1],"tree_param":{"num_deleted":"0","num_feature":"32","num_nodes":"45","size_leaf_vector":"1"}},{"base_weights":[-4.9398735E-1,-4.9826416E-1,-9.9750444E-2,-1.509299E-1,-3.3938363E-1,2.6748163E-1,-1.2070219E-1,-4.8525106E-2,-1.4129885E-1,-7.6443374E-2,1.9768448E-1,-2.5209907E-1,1.21488035E-1,5.0549977E-2,-8.317685E-2,-1.21355146E-1,7.026784E-2],"categories":[],"categories_nodes":[],"categories_segments":[],"categories_sizes":[],"default_left":[0,0,0,0,0,0,0,0,0,0,0,0,0,0,0,0,0],"id":45,"left_children":[1,3,5,-1,7,9,-1,11,-1,13,-1,15,-1,-1,-1,-1,-1],"loss_changes":[9.7088623E-1,2.8912354E-1,9.6840394E-1,0E0,7.7153945E-1,6.023867E-1,0E0,8.018308E-1,0E0,1.9814803E-1,0E0,5.282029E-1,0E0,0E0,0E0,0E0,0E0],"parents":[2147483647,0,0,1,1,2,2,4,4,5,5,7,7,9,9,11,11],"right_children":[2,4,6,-1,8,10,-1,12,-1,14,-1,16,-1,-1,-1,-1,-1],"split_conditions":[2.6668935E0,3.7513058E0,3.902167E-1,-1.509299E-1,1.7339245E0,3.6329765E0,-1.2070219E-1,1.3802458E0,-1.4129885E-1,5.0553314E-2,1.9768448E-1,3.6017127E0,1.21488035E-1,5.0549977E-2,-8.317685E-2,-1.21355146E-1,7.026784E-2],"split_indices":[17,31,21,0,25,31,0,25,0,21,0,26,0,0,0,0,0],"split_type":[0,0,0,0,0,0,0,0,0,0,0,0,0,0,0,0,0],"sum_hessian":[6.0430646E2,5.9756006E2,6.7463903E0,5.7780817E2,1.9751875E1,3.1000762E0,3.6463141E0,6.5796976E0,1.3172177E1,2.07862E0,1.0214564E0,4.847633E0,1.7320646E0,1.0089068E0,1.0697131E0,3.8189585E0,1.0286746E0],"tree_param":{"num_deleted":"0","num_feature":"32","num_nodes":"17","size_leaf_vector":"1"}},